51 64
49 -0.11531263 0.22766142 0.15594056 0.08466565 -0.0038651673 0.010585548 0.5013752 0.7514471 0.9727733 1.373385 -0.07455734 -0.05240358 -0.03049737 0.4115758 -0.082044825 0.5914891 -0.123133555 0.08735022 -0.07611949 -0.082891814 -0.025881162 1.0899802 -0.0005814945 0.42203736 0.26040366 0.30553082 0.115102336 -0.013666786 0.82034975 -0.08176072 -0.07206209 0.2914446 0.9829474 -0.022427382 -0.13951436 0.2958649 -0.055583682 -0.03561444 -0.11236937 -0.026748015 -0.029655356 -0.07752089 -0.014895025 -0.04679661 -0.055413987 0.045886677 -0.11604605 -0.041402284 0.53135866 -0.029908944 -0.07313624 0.3811454 -0.05111158 0.8575895 0.4373967 -0.08091601 -0.00999468 0.46114162 -0.13059074 0.41498807 -0.0030305765 0.094361745 0.68749374 0.9623424
9 -0.10535733 0.15623584 0.5986497 -9.159674e-05 0.20233655 0.08671776 0.19377583 -0.045888357 0.5159417 1.0166068 -0.09166339 -0.065305926 0.49797466 -0.06463405 -0.109932914 0.13169387 -0.032225933 0.108556844 -0.11202905 0.3395105 0.09087774 1.0488709 -0.024765823 0.57031626 0.586984 0.27598664 -0.07646011 0.2633213 0.8793929 -0.042236637 -0.036987945 0.5004391 0.7369323 -0.040853113 -0.080501966 0.1699503 -0.035639826 -0.11265141 -0.21848963 -0.07764229 -0.1398944 -0.030709444 0.17155008 -0.024296029 -0.03062295 -0.052288808 -0.069806784 -0.048900392 0.9660175 -0.011996685 -0.0142097445 -0.0064764298 -0.091728486 0.19456518 0.6968603 -0.088322856 -0.057423342 0.30995107 -0.13232152 -0.027072802 0.13021262 0.04784025 0.812797 0.83018816
3 -0.17137754 0.4849068 0.20750393 0.028993186 -0.00940574 -0.00010655923 0.1410527 -0.0015148612 0.73279744 1.5064342 -0.10327256 -0.08674987 -0.045816932 -0.013248186 -0.09226457 0.48795632 -0.087640904 -0.00082116 -0.06643271 -0.077143826 0.16390687 1.1994904 -0.0004979019 0.42560488 0.2402644 0.13659333 -0.039047044 0.12594317 0.74843925 -0.13044305 -0.09240883 0.052624498 0.5248132 -0.041542955 -0.15868011 0.11334302 -0.034957904 -0.092440985 -0.09182123 -0.011138738 -0.0827092 -0.022473851 -0.03543781 -0.08111745 -0.016914556 0.09538574 -0.019759519 -0.07690572 0.4862891 0.11551121 -0.13758248 0.41981944 -0.109506585 0.48157755 0.562206 -0.06892393 0.089675024 -0.0068404633 -0.14382 0.2839737 0.24612702 0.05724126 0.6955133 0.6618114
26 0.12686977 0.06392865 -0.0340029 0.88743687 0.73107547 0.08222828 0.21811108 -0.09315426 0.17707388 1.5561302 0.22914873 0.5481 -0.008894688 -0.0674787 0.09591837 0.5216193 -0.038275722 0.30303323 -0.098775886 -0.06723394 -0.18049656 0.8862429 -0.026890798 -0.15449814 0.3852285 0.7539866 -0.16671441 -0.13978356 0.39580235 0.34314707 0.3016615 -0.007479369 0.04534784 -0.090138115 -0.046192456 0.1493259 0.61393315 0.8876905 -0.21415298 -0.08494386 0.51399577 -0.032022223 0.8429826 -0.037020195 -0.13319969 -0.05704399 -0.075285584 -0.028253233 0.94931895 -0.1379003 -0.1690152 0.59994626 -0.11042371 0.60856783 -0.060480963 0.32094768 1.145295 -0.06632078 -0.095489405 -0.09235716 0.1983277 0.6515299 1.1891313 0.59403265
24 0.12378114 0.14816952 0.18871252 0.6215097 0.37480536 -0.007996704 0.4459068 -0.1052799 0.11422634 1.2496176 0.8332803 0.12139206 0.08029622 -0.06856679 -0.007705075 0.04061001 -0.015136945 0.38920808 -0.13322197 -0.028326545 -0.12045282 0.48673043 -0.03557975 -0.16489302 0.29186141 0.39952272 -0.16433243 -0.14854482 0.3940174 0.21371959 0.13669148 -0.027459985 0.5950772 -0.0889125 0.4745574 0.43109804 0.38423464 0.29829288 -0.20231865 -0.08726069 -0.044826668 -0.03635849 0.83400464 -0.056103826 -0.10267351 -0.0632467 -0.06737909 -0.03477132 1.054885 -0.088406034 -0.13539344 0.33938918 -0.11198755 0.57806784 0.30919042 -0.020360148 0.6896524 0.2362369 -0.13537218 -0.06368252 -0.0013207351 0.5820016 1.281999 0.81229615
10 -0.15425187 0.29094648 0.7178667 0.009484891 0.29387912 0.12203591 0.23527788 -0.07031867 0.32809383 0.8961887 -0.066208005 -0.051714238 0.56544226 -0.07501652 -0.113367476 0.1390432 -0.011556957 0.24702787 -0.079641156 0.17103773 0.11067857 0.9246209 0.49568316 0.43017232 0.106227815 0.045807555 -0.003294766 -0.03725575 0.74910665 -0.08700412 0.07801563 0.4855948 0.7181952 -0.05719942 -0.059211608 -0.020459378 -0.025564944 -0.083798304 -0.107801914 -0.020276975 -0.07672777 -0.021139296 -0.023725515 -0.0739658 -0.014956328 -0.041014474 0.51247567 -0.027383259 0.7750383 -0.044909824 -0.13904208 0.24503246 -0.07147242 0.5625366 0.35125992 -0.05055989 0.19562651 -0.010187772 -0.11711248 0.49083328 0.40111333 -0.015665418 0.9591028 0.4388895
1 -0.11729944 0.4245034 0.21047986 -0.007712535 0.13157052 -0.02154111 0.35173348 0.31762168 0.9187963 1.1417661 -0.08545682 -0.08224485 -0.09311696 -0.036814317 -0.080207825 0.45455492 -0.12397543 0.15853547 -0.114969276 -0.0689571 0.15729047 1.0798117 -0.025258323 0.42886043 0.3355739 0.27508214 -0.014456928 0.27756763 0.9160206 -0.072297744 -0.060675453 0.49985358 0.91713196 -0.036159158 -0.10334235 0.39856923 -0.06069087 -0.07839952 -0.09644245 -0.011697611 -0.10910354 -0.09155094 0.090085395 -0.094159 -0.036093477 -0.011496826 -0.053541344 -0.089158855 0.66077846 -0.041858017 -0.03159478 0.3053123 -0.06504545 0.64589703 0.5456359 -0.08415868 0.14825529 0.23154734 -0.07806334 0.27701265 0.15391459 0.14687756 0.7197059 0.85501504
16 -0.15924487 0.42958218 0.32858726 -0.009033634 0.58420414 -0.011837004 0.33640522 0.012888501 1.2308307 1.2013469 -0.021843474 -0.06372321 -0.052354127 -0.07655522 -0.13837072 0.25462106 -0.055687457 0.60491157 -0.18405059 0.067748375 -0.12994052 1.2308828 -0.11184038 0.22704571 1.050362 0.66457343 -0.10229399 -0.068254285 1.3522241 -0.030042896 -0.09023623 0.32226098 0.9287198 -0.041895565 -0.082189545 0.3830404 0.32514042 -0.08382716 -0.21649812 -0.10052228 -0.12637495 -0.03547723 0.5911916 -0.052662194 -0.20879947 -0.031726338 -0.047551665 -0.06296441 1.264398 -0.05379034 -0.16827564 0.45398477 0.17472106 0.6794517 0.48351845 -0.038382933 -0.0080147935 0.2534096 -0.08154654 -0.047333892 0.021232374 0.63271 1.5867096 0.78604203
48 -0.1551018 0.1473977 0.43837792 -0.019056512 0.07976921 0.07226569 0.2800134 0.38665965 0.78202015 1.1758192 -0.103835106 -0.07607013 -0.005806152 -0.026156425 -0.102901734 0.41454685 -0.14461432 0.050537594 -0.08143749 -0.035230126 0.14888449 1.0540404 0.15707186 0.32488444 0.19393457 0.028549537 0.06111928 -0.016458144 0.88593435 -0.079109825 -0.048871092 0.5084882 1.0937617 -0.027495194 -0.084916726 0.38187853 -0.045458715 -0.05671239 -0.09148059 -0.012922928 -0.059745353 -0.07316862 0.028822642 -0.0891635 -0.024756012 -0.03554486 -0.037135687 -0.04806301 0.5861997 -0.074484594 -0.044120964 0.20567267 -0.045407426 0.87057024 0.42146093 -0.09446067 0.2079547 0.45364988 -0.11610576 0.3638641 -0.009380738 -0.014587094 0.65577966 0.71136916
19 -0.051907755 0.21407187 0.18330422 0.31829935 0.7925755 -0.026919315 0.3546757 -0.1170118 0.378651 1.0228715 0.05878317 0.22968438 0.14463641 -0.112207375 -0.080417246 -0.038417406 -0.008902636 0.46872634 -0.1823138 0.23012021 -0.18654276 1.048963 -0.06616535 -0.04085491 0.8856732 0.56428766 -0.17270407 -0.10214355 0.505998 -0.01971733 -0.025755811 -0.0018284079 0.19837542 -0.10517961 -0.020458654 0.09842426 0.88204163 -0.010936225 -0.2208102 -0.06898447 -0.070307076 0.06249439 0.83987004 0.088955246 -0.15884735 0.15775314 -0.013490676 0.069796324 1.297108 -0.13501817 -0.14617214 0.58122104 -0.05876516 0.11270096 -0.04161779 0.70908415 0.54652274 -0.06020805 -0.10114912 -0.057883944 0.2714951 0.46635237 1.5353233 0.4921719
7 -0.14461769 0.014612719 0.0077689025 -0.036996566 0.26069412 -0.008372919 0.02483884 0.6140366 0.88268185 1.1852849 -0.094421096 -0.13037962 -0.09545379 0.02569618 -0.116992965 0.527484 -0.09134992 0.17900468 -0.112053536 -0.029570026 -0.0613753 1.2311088 -0.10583396 0.39279735 0.64549905 0.84366703 -0.11090785 -0.025205646 1.4686137 -0.06074774 -0.1309814 0.36221337 1.3119563 -0.015200256 -0.120372705 0.5752137 -0.04841144 -0.09844891 -0.17426011 -0.14450358 -0.12865531 -0.11029702 0.18744205 -0.05167995 -0.14603704 -0.086159416 -0.15151449 -0.078206375 0.96069115 -0.0669346 -0.06433572 0.31748325 0.0066864127 0.6396146 0.74770516 -0.06899358 -0.024499949 0.64554536 -0.07526527 -0.06625561 -0.047624834 0.54440033 1.165558 0.7152914
38 -0.07378637 0.4969191 0.080184475 0.55290765 0.24283355 0.28392413 0.6504646 -0.012634726 1.4519362 1.7089877 -0.120450735 -0.035537936 -0.07934221 0.5652952 -0.0156183485 0.8148429 -0.12654 0.31253982 -0.07735733 -0.087013446 -0.07441797 1.1654576 0.014284937 0.37518066 0.1637231 0.4137528 -0.003860709 -0.077613965 1.1777965 -0.13327679 -0.0051119803 -0.052986164 0.6650543 0.07531066 -0.21482897 -0.026468236 -0.07946165 0.100287884 -0.116998546 0.40396255 -0.051942088 -0.06952917 0.70973474 -0.08153975 -0.0723482 0.36700636 -0.027078355 -0.05158968 0.4546983 0.4287135 -0.09631176 0.6905102 -0.08023241 0.9574207 -0.009259052 -0.046556633 0.3254571 -0.02648522 -0.0673202 0.7158965 0.28418708 0.25361523 1.0576094 0.9285369
37 -0.07496185 0.31345916 -0.017993238 0.17695744 -0.007867865 0.14813635 0.40772387 -0.09943131 1.0553095 1.3640155 -0.07895439 -0.055172976 -0.053846236 0.3807281 -0.061126035 0.3010986 -0.11067959 0.19359288 -0.05349899 -0.067044474 -0.09179827 1.2228454 -0.0064154766 0.073489286 0.11435089 0.72067153 -0.097873844 -0.039687816 1.1128557 -0.08210113 0.05556703 -0.06728051 0.36277366 -0.036991764 -0.121347666 -0.05209623 -0.013569827 0.34303975 -0.043724608 0.2342749 -0.0618571 -0.015023156 0.6532412 -0.06595078 -0.085324846 0.3836812 -0.013852127 -0.012492881 0.5558485 0.15138823 -0.19704925 0.71942747 -0.067007706 0.4983953 -0.019505585 0.08726932 0.4580092 -0.06298526 -0.06533252 0.29513526 0.16986905 0.11467615 1.2861159 0.45503914
34 -0.0014834955 0.23757327 -0.009554001 0.29222733 0.004069349 -0.013570211 0.4892222 -0.07770382 0.7583624 1.276025 0.19550031 -0.04483432 -0.060349982 0.36403817 -0.012040941 0.250951 -0.05066787 0.05235269 -0.046770576 -0.063049234 -0.10000457 0.767438 -0.06271469 -0.057326455 -0.02276813 0.78075904 -0.12035256 -0.052126523 0.68131316 -0.046968352 -0.015851872 -0.09160715 0.6284904 -0.048329692 -0.017250594 0.20844951 0.1306982 0.26181322 -0.04740719 0.042929385 -0.057456482 0.06613872 0.7561275 -0.07645775 -0.07338044 0.070586905 -0.093140095 -0.027960911 0.732606 0.14273483 -0.15046951 0.6759177 -0.04391687 0.33036247 0.10317451 0.2096316 0.20262128 0.22465524 -0.047672935 -0.0064929673 0.08980603 0.2861797 1.0137355 0.65364003
47 -0.09784365 0.34272224 0.42442074 0.16610947 0.11531581 0.08879423 0.37422174 -0.007791602 0.5646289 1.4917613 -0.11542761 -0.003187386 0.58928335 -0.025243172 -0.10904652 0.2991274 -0.10550805 -0.048189566 -0.028520007 -0.05442527 0.288263 1.0124133 0.38779905 0.13474827 0.06186255 0.09234028 0.29823744 -0.033777677 0.35309118 -0.06217369 0.37088165 0.16326103 0.5302025 -0.042982083 -0.12773769 0.15652725 -0.00030372696 0.1033629 -0.04516381 0.33123457 0.0906909 -0.030030403 -0.01768649 -0.050548404 0.21956009 0.23218389 -0.027993143 -0.036009505 0.32439926 -0.051554758 -0.08969451 0.24506119 -0.103048205 0.82388425 -0.007657401 -0.063524246 0.44571623 0.40706825 -0.15685076 0.55481887 0.3205686 -0.05611027 0.6058468 0.71341103
5 -0.1521254 0.28056985 0.06750738 -0.035224542 0.3969348 -0.05962006 0.33947736 -0.014616664 0.37535515 1.3194373 -0.071923494 -0.045322668 -0.060753353 -0.099687494 -0.12411495 0.4835156 -0.069617316 0.039892297 -0.14741324 -0.056528073 -0.011611621 1.11113 -0.058383733 0.18220899 0.7225139 0.29538026 -0.05643477 -0.022619747 0.63632536 -0.056133326 -0.094646685 0.4054126 0.5971763 -0.055952907 -0.08046383 0.3216759 0.14765619 -0.081139386 -0.18067959 -0.070419505 -0.13497987 -0.10726663 -0.011492444 -0.0896604 -0.09824711 -0.0810371 -0.024174288 -0.09024659 0.8093854 -0.055474896 0.075167164 0.064330675 -0.094322436 0.46759424 0.7012735 -0.060033847 0.41455552 0.13689856 -0.1391925 -0.0041797487 0.1959268 0.21328096 0.8127352 0.5883795
30 0.049277052 0.36952645 -0.034477927 0.37731767 0.016994296 -0.0151941255 0.19899878 -0.14934932 0.8678197 1.4987729 -0.0292669 -0.020351347 -0.024935765 0.44093636 0.20219275 0.35875267 -0.009588418 0.29622373 -0.089161806 -0.050995357 -0.123687506 0.9849521 -0.07790979 -0.077319436 0.18519667 0.7824191 -0.1627219 -0.13026427 0.8524638 -0.038510185 0.060867198 -0.1333506 0.3915761 -0.04235686 -0.04383993 0.070748255 0.23250607 0.33211565 -0.11065781 0.12966533 -0.085425 0.12159192 1.1147197 -0.07079703 -0.098307066 0.014955972 -0.06463993 -0.024489202 0.9107257 0.2833371 -0.16857229 0.8313051 -0.107264005 0.45707932 0.007031597 0.35528377 0.42476204 -0.019144373 -0.04255854 0.06011562 0.046705812 0.6328995 1.4363587 0.7941886
27 0.032690644 0.17404553 -0.053699143 0.502058 0.4780347 -0.030925835 0.43636668 -0.14389393 0.36217588 1.2817695 0.5383948 0.1281609 -0.052659627 -0.07166468 0.17920941 0.0871978 -0.030697113 0.28462344 -0.13150708 -0.045213066 -0.16913742 0.74944586 -0.10302484 -0.1244536 0.5745128 0.86700964 -0.22052991 -0.15943149 0.62911946 -0.02303314 -0.0448765 -0.108443454 0.35778925 -0.073051095 0.08575527 0.30488616 0.74286205 0.47337198 -0.1483826 -0.09277176 -0.09945671 -0.009446049 1.0461197 -0.04472148 -0.15921271 -0.039725572 -0.08008628 -0.028848017 1.0417998 -0.049890976 -0.1442691 0.5820599 -0.06417147 0.4268253 -0.008354416 0.47164434 0.6129483 0.08859012 -0.06393301 -0.083029784 -0.0043716813 0.6081445 1.5714802 0.7094541
43 -0.070177786 0.30685824 0.09544612 0.19021727 0.014336538 0.2556029 0.8667158 -0.00584441 1.265913 1.4392102 -0.03749376 -0.05978274 -0.052450277 0.5118816 -0.020122278 0.26364112 -0.115001716 0.3171427 -0.094084226 -0.16464256 -0.055465955 1.0127485 -0.02347432 0.084161885 0.2372943 0.46722546 -0.055538412 -0.08729383 1.0589851 -0.08336187 -0.015843756 -0.07810965 0.7526997 -0.035933353 -0.087388314 0.29547128 -0.07068197 0.58963835 -0.039092656 0.5480066 -0.032190923 -0.049073398 0.6105894 -0.08161831 -0.025263106 0.18976602 -0.07384563 -0.019608965 0.68808895 0.23460504 -0.11948633 0.62464106 -0.0700226 0.8184658 0.020366881 -0.020778215 0.21451437 0.019974148 -0.053225618 0.34195057 -0.006935035 0.30706587 1.108623 0.7953042
14 -0.16066204 0.6826824 0.15831888 0.015747558 0.404099 -0.02113214 0.45688802 -0.122868896 0.94839454 0.89012426 -0.039007742 -0.09961876 -0.08720491 -0.07929648 -0.07317542 0.17878027 -0.0664855 0.79904526 -0.17375436 -0.019917747 -0.06668498 1.1756207 -0.10679132 0.1487451 1.1976227 0.8496049 -0.1820262 -0.04915024 1.2687643 -0.046291858 -0.14350565 -0.017667564 0.32090366 -0.004535347 -0.1145794 0.2325109 -0.019251449 -0.052487742 -0.19195549 -0.07819706 -0.17906964 -0.012438502 0.70176387 -0.040085424 -0.14596736 -0.068966165 0.07548298 -0.062641814 1.3218673 0.4806542 -0.075542524 0.5193185 -0.07186278 0.31782323 0.6721106 0.08742315 -0.024294283 -0.07620286 0.3309563 -0.06903972 0.05882205 0.8423571 1.2727419 0.7236375
44 -0.10492452 0.47075784 0.11940556 0.31217036 -0.008589386 0.17994612 0.7394034 -0.12019861 1.2105497 1.3824816 -0.036316153 -0.06028364 -0.067120776 0.04725812 -0.069208495 0.37555265 -0.1146809 0.45128125 -0.1361569 -0.11114013 -0.09768728 1.0974934 -0.03810454 -0.020123102 0.035874188 0.30190852 -0.09394821 -0.11762518 0.7709041 -0.12144889 -0.016160877 -0.070035115 0.4810605 -0.028962081 -0.09673627 -0.015898209 0.017899359 -0.015852759 -0.041737806 0.5190129 -0.088860475 -0.040062074 0.7826008 -0.094125666 -0.09051385 0.28128654 0.087320566 -0.029135678 0.62433875 0.018671429 -0.12671094 0.559071 -0.06830736 0.5231208 -0.016548356 0.059394263 0.57642126 -0.02192512 -0.16322032 0.45469752 0.32670024 -0.010370953 1.2911202 0.584764
31 0.06250211 0.37585407 -0.01856351 0.42952913 0.006058356 -0.030210093 0.36108214 -0.103040375 1.0558836 1.4287773 0.19757745 -0.02087667 -0.08327199 0.2255244 0.13185191 0.45139116 -0.05375513 0.47638485 -0.09395002 -0.109037854 -0.13275489 0.9018982 -0.07963529 -0.09367341 -0.00085439126 0.7001549 -0.17239837 -0.09472996 0.6355342 0.009622139 -0.0036458329 -0.06126417 0.65598845 -0.019762954 0.08684653 0.43089366 0.117996745 0.29678428 -0.12723485 -0.0105503155 -0.043713015 -0.04232601 1.0525447 -0.0929155 -0.111178815 -0.014053228 -0.12977402 -0.05073688 0.8339568 0.0509237 -0.15391959 0.4998105 -0.062984996 0.57867706 0.11323926 0.17833754 0.55033886 0.029660113 -0.078400165 -0.018482868 0.034727894 0.39641893 1.277459 0.64613974
13 -0.10995473 0.07566843 0.1493814 -0.024909725 0.39126578 -0.0071353787 -0.010581433 -0.04457968 0.6567354 0.73044854 -0.12353029 -0.08745835 -0.08304469 -0.036659792 -0.15675353 0.20299825 -0.0059208153 0.48671192 -0.116852835 0.21923903 -0.07007006 1.3096081 -0.06374664 0.45339072 0.7994142 0.71216905 -0.12708706 -0.0089019695 1.1383263 -0.027334455 -0.07558843 0.2814032 0.43208054 -0.005424163 -0.097050816 0.062162306 -0.031108392 -0.049680732 -0.15457511 -0.07976049 -0.14483266 0.07287671 0.4561833 -0.0509511 -0.11656769 -0.017944233 -0.034498237 -0.01780256 0.9248404 -0.007217952 -0.1312413 0.17080164 -0.013400758 0.015763007 0.70553994 0.07364052 -0.030049954 -0.056737613 -0.036170837 -0.06907512 0.05114293 0.43622172 1.2854233 0.25444454
25 0.13082123 -0.007725626 -0.021897152 0.5680771 0.514056 0.15456206 0.028242433 -0.094022214 0.2630839 1.4907268 0.17653602 0.38065183 0.0245892 -0.066963635 0.09420954 0.39554363 -0.03378005 0.37967157 -0.12018957 -0.043699306 -0.15652917 0.7121541 -0.050938804 -0.119686246 0.27737638 0.48114643 -0.16608405 -0.09829283 0.5771192 0.25417164 0.25364083 -0.011508404 0.20475222 -0.08529234 0.024382353 0.10242366 0.36092716 0.78333986 -0.2223598 -0.08426376 0.120377384 -0.029414782 0.69359773 -0.036290616 -0.1302968 -0.046583667 -0.07967598 -0.015495908 0.9265823 -0.1277147 -0.15353136 0.5068557 -0.11150255 0.55213386 0.0011448516 0.14604245 0.99497783 -0.03488016 -0.10093903 -0.07609497 0.037285056 0.68042123 1.2457036 0.56368506
40 0.04712096 0.38294172 0.08168669 0.565161 0.13098118 0.12944338 0.8161814 -0.06417451 1.1770552 1.646096 -0.020464865 -0.04613385 -0.031321157 0.77183515 -0.045960944 0.47153634 -0.09042116 0.37709785 -0.058917265 -0.08961312 -0.118866265 1.1684206 -0.011331129 0.0075850524 -0.030277757 0.5820218 -0.10562519 -0.056953527 0.89723885 -0.093146615 0.3139478 -0.099427454 0.6048099 -0.04747876 -0.12930678 -0.023410318 -0.029377986 0.50458187 -0.1305819 0.23049022 0.11624303 -0.013293932 0.84256196 -0.06815448 -0.07992293 0.27291322 -0.041001074 -0.029909328 0.81760174 0.12637332 -0.18031287 0.7855583 -0.10274851 0.6598762 -0.026185155 0.04859027 0.4470559 -0.038739715 -0.08317622 0.33447725 0.21408918 0.1810598 1.3079311 0.72405654
46 -0.12002969 0.90764517 0.4573212 -0.019744387 0.1736298 0.038177434 0.5154337 -0.047357198 1.3332464 1.4637281 -0.090994 -0.07457638 -0.011594574 -0.09779974 -0.14192538 0.39172217 -0.112888254 -0.04989518 -0.16340126 -0.09712915 0.32010922 0.9973761 -0.057195246 0.60895365 0.36397573 0.25580275 -0.004487323 0.44648752 0.97548115 -0.10058929 -0.03337283 0.2781406 0.8093575 -0.08199928 -0.081907384 0.69068134 -0.017577887 -0.090321116 -0.052402657 0.2840568 -0.06587465 -0.07597237 0.15589339 -0.09866118 -0.023843411 0.29383484 -0.09097909 -0.10996872 0.5168844 -0.05310762 -0.06925847 0.2949634 -0.096111834 0.5930358 0.4359388 -0.11660882 -0.032296713 0.48305428 -0.15757653 0.040828716 0.48623395 0.030850166 0.7702814 0.98033273
39 -0.05771121 0.5300993 -0.0062115253 0.4860202 -0.012903312 0.47535744 0.50717556 -0.10248567 1.1589785 1.5311832 -0.036268823 -0.020686993 -0.08241602 0.3732631 0.20416021 0.57980746 -0.06806578 0.35500678 -0.079178356 -0.13922915 -0.053471625 0.9677163 0.074529946 0.12782401 0.05972837 0.67874235 -0.107187286 -0.06464644 1.1582499 -0.09467833 -0.04117233 -0.07935232 0.11923147 -0.040516336 -0.11201537 -0.033488285 -0.044463076 0.7395161 -0.018948806 0.14465545 -0.03477425 -0.022865882 0.42818138 -0.08246874 -0.042771827 0.1496203 -0.040976472 -0.031575896 0.6183017 0.50654954 -0.17495519 0.81366926 -0.12493365 0.65500784 0.14420159 0.101118445 0.3812093 -0.11124327 -0.05947408 0.23435894 0.53114694 0.5243634 1.1861956 0.55629075
32 0.30774352 0.44179493 0.05175919 1.0519726 0.5655826 0.07830507 0.30819055 -0.055804092 0.5298127 1.364433 0.31035447 0.05800305 -0.084599756 0.39155015 0.34700918 0.5291738 -0.016243322 0.3348874 -0.00954637 -0.09070921 -0.11371616 0.89306206 0.17002012 -0.10987462 -0.032165933 0.6261506 -0.1013813 -0.10004436 0.19658762 0.036784004 0.30982578 -0.018604565 0.25343692 -0.03380307 -0.07695651 0.16663349 0.25305983 0.13310465 -0.18384866 -0.015350111 0.7062485 -0.0099832965 1.0899404 -0.04221929 -0.060683817 0.014155294 -0.06477642 -0.035022352 0.622189 -0.035293456 -0.1693474 0.8742718 -0.06811733 0.73725677 -0.07661929 0.3477719 0.75898993 -0.0597147 -0.0671775 0.19487149 0.22375302 0.3420954 1.0401288 0.54399204
6 -0.15678245 0.4068315 0.5896036 0.02143307 0.27384073 0.11031526 0.08470565 0.021556612 0.5509397 1.5402908 -0.16044378 -0.03926271 0.67513156 -0.06000913 -0.14760982 0.589674 -0.07251552 -0.05608445 -0.13974538 0.26454878 0.12228084 0.9477211 0.030219352 0.61135113 0.2522381 -0.018897515 0.13738544 0.060689572 1.0354902 -0.08943891 0.2869091 0.55835813 0.949891 -0.07214915 -0.1097579 0.081939794 -0.0022946415 -0.104366146 -0.179503 -0.017352913 -0.09506067 -0.040222842 -0.06689765 -0.06755969 -0.031980168 -0.043286335 -0.06229466 -0.045965802 0.5849927 -0.067101024 -0.08523838 -0.018642444 -0.089715965 0.5635694 0.7086596 -0.1467223 -0.017163344 0.524959 -0.23580824 0.34135243 0.44582272 -0.01228401 0.7051317 0.913952
28 0.017531984 0.18480712 -0.030663256 0.20891844 0.11360024 -0.014254629 0.24250792 -0.11369707 0.60912454 1.0882508 0.230145 -0.0042453534 -0.048638023 0.13117597 -0.02653715 0.24664669 0.003403381 0.21493626 -0.080596514 -0.021510847 -0.13321565 0.7623029 -0.067013696 -0.07249576 0.019489704 0.6044346 -0.1388805 -0.12835436 0.6586457 -0.026934713 -0.0043862807 -0.08243313 0.4592368 -0.05555568 0.1930098 0.048288874 0.3480609 0.3561743 -0.085861884 -0.016216723 -0.092855826 0.0004362734 0.86363393 -0.053032983 -0.11582495 -0.002454126 -0.07776216 -0.012192076 0.79234403 -0.01298812 -0.16246569 0.5802321 -0.05155654 0.368062 0.20624341 0.3192743 0.50331235 0.049446046 -0.108145826 -0.020460026 0.033439595 0.4913787 1.4208211 0.54429567
36 -0.04505976 0.49036527 -0.060035795 0.30326876 -0.00027993062 0.029297384 0.41952357 -0.10315161 1.0710388 1.4785756 -0.06822492 -0.051296473 -0.049278487 0.28223464 -0.00078529184 0.39440903 -0.08512057 0.039463647 -0.046624783 -0.12297888 -0.04008471 1.0273265 -0.038978886 0.14007391 0.14667226 1.03263 -0.10651658 0.09033503 1.0956343 -0.1040585 -0.048151854 -0.11249212 0.27452952 -0.025406042 -0.118446305 0.024280325 -0.009641145 0.6504385 0.14486809 -0.022326028 -0.057626527 0.11554196 0.4442065 -0.086212955 -0.030921826 0.5564895 -0.07669843 -0.016616682 0.60426706 0.37075529 -0.21585403 0.7244567 -0.074693695 0.3894892 -0.007587157 0.27283996 0.11534291 -0.035744254 0.19587246 0.03547173 0.4816642 0.290744 1.0360172 0.7374448
18 -0.046657022 0.25970966 0.48770374 0.39524192 0.63727975 -0.035174467 0.33799672 -0.10491147 0.37085995 1.1629158 0.22944452 0.07034469 0.14675942 -0.074897036 -0.069544286 0.008763103 0.1358966 0.70777696 -0.165204 0.13270529 -0.14087139 0.8633217 0.076129004 -0.026892567 0.70007354 0.40081367 -0.15031578 -0.09984137 0.5045566 -0.0034962601 0.028297566 0.012476625 0.35997254 -0.07521515 -0.005380424 0.118524715 0.45634434 -0.026271835 -0.22771917 -0.035538357 -0.061700255 0.15773274 0.59345573 -0.03576174 -0.13770463 0.0933802 0.10999602 -0.00520011 1.3634748 -0.05095149 -0.19043534 0.3667189 -0.07371487 0.17435257 0.19539611 0.35636812 0.4178269 -0.073019125 -0.12868421 -0.021907974 0.27408665 0.35878047 1.397127 0.5032869
20 -0.11999803 0.3607149 0.47292548 0.013062153 0.15533537 -0.016966201 0.54730123 -0.09655051 0.20562164 1.1075597 0.3217823 -0.010918795 0.29776677 -0.10049375 -0.080766365 0.063229606 -0.02300345 0.21411224 -0.16813841 0.011050592 -0.0699362 0.850646 -0.02082113 -0.027080212 0.39729798 0.25938302 -0.102645 -0.07107885 0.4867728 -0.022582335 -0.10643452 0.1813385 0.78964126 -0.12516946 0.21411347 0.24028358 0.36509714 -0.042042386 -0.18272816 -0.1086396 -0.12438486 -0.03238069 0.1570968 -0.0644513 -0.08746343 -0.020893306 -0.0228339 -0.042672537 1.137571 -0.102505766 -0.0965139 0.18332328 -0.0799336 0.35907665 0.43893102 -0.020208558 0.36224145 0.20132379 -0.14952964 -0.03465029 0.30782676 0.3311195 1.3773589 0.8513156
29 0.033390313 0.33927435 -0.027110407 0.76967233 0.35299572 0.12695631 0.133855 -0.13156457 0.6058969 1.4850279 0.29561773 0.03918265 -0.062614456 0.18452373 0.33492044 0.5340245 0.042800426 0.2921711 -0.084573716 -0.08890878 -0.115168564 0.94502205 -0.018629417 -0.08275282 0.12297178 0.6536712 -0.16490623 -0.10240433 0.7091738 -0.027902702 -0.006255875 -0.088739865 0.26514715 -0.014785978 -0.03931567 0.2071225 0.36626947 0.628806 -0.1407061 -0.03101838 -0.0020545856 0.12968458 0.87585855 -0.06448453 -0.091906935 -0.011638955 -0.090449244 -0.021652682 0.5809482 -0.017103067 -0.21290977 0.63282365 -0.10093496 0.7020383 0.004319098 0.19664882 0.63113475 -0.05648417 -0.053002354 0.035994235 0.13726954 0.5204872 1.3994908 0.6125972
21 -0.09496937 0.35474616 0.22691253 0.052775353 0.2737612 -0.029483482 0.3708192 -0.08322703 0.3489061 1.1767297 0.43541968 -0.009268272 -0.030558502 -0.083469 0.0132688545 0.10504308 0.102274485 0.37646592 -0.15293646 -0.053574648 -0.103861205 0.8173274 -0.038067933 -0.11543261 0.45445606 0.4516917 -0.16186468 -0.13154009 0.40187025 0.012850341 -0.07349217 0.057494316 0.5353335 -0.11538335 0.393209 0.42689368 0.3808476 -0.037139457 -0.18677242 -0.05541678 -0.08769688 -0.048662167 0.54718655 -0.060206365 -0.13124391 -0.008233069 0.17710733 -0.025487667 1.1681527 -0.008860939 -0.109429196 0.43407866 -0.06735351 0.17590594 0.36396176 0.25906962 0.6269331 -0.032348353 -0.086054474 -0.053070616 0.26882523 0.65965617 1.3324213 0.7544377
23 -0.016150828 0.19423504 0.079179615 0.28226385 0.40199205 -0.046385463 0.5055235 -0.10803906 0.4066404 1.0166963 0.80614084 0.044193666 -0.05437566 -0.054237027 -0.0022766658 0.009106578 0.023514539 0.49407005 -0.16649206 -0.015967838 -0.13382405 0.7170747 -0.08072263 -0.12695287 0.6623215 0.6000648 -0.18033807 -0.14070044 0.50087655 0.067434624 -0.019847186 -0.037345883 0.39755347 -0.072095826 0.4255256 0.41983277 0.61505926 0.16661692 -0.21278143 -0.058399197 -0.10366235 -0.03430169 0.92527974 -0.030275835 -0.165474 -0.06421441 -0.04297486 -0.039964773 1.0930955 -0.029983511 -0.0930211 0.3914507 -0.077396266 0.396574 0.3304954 0.26540512 0.49206713 -0.0065957564 -0.09050833 -0.042111292 -0.013430257 0.7328042 1.2696418 0.7681703
35 -0.05241564 0.5657041 -0.033228982 0.6464057 -0.0010309409 0.30497423 0.51908267 -0.053228803 1.0017079 1.4446715 -0.025921894 -0.032157715 -0.100789145 0.70125973 0.3694423 0.7578715 -0.12492875 0.21481179 0.06692102 -0.18579993 -0.061153214 1.3739418 0.27306148 -0.032611486 -0.055677023 0.87600875 -0.09895923 -0.033322595 0.9080468 -0.07393243 -0.08655198 -0.04696679 0.4092446 -0.025406538 -0.18560775 0.10575445 -0.050178688 0.4382791 -0.06642987 -0.07442837 0.5280607 -0.05422331 0.48143968 -0.06737798 -0.029326696 0.030800927 -0.04219915 -0.03871939 0.40622863 0.2199729 -0.17504685 0.9512022 -0.07717003 0.9215356 -0.061626006 0.010742414 0.47982156 -0.09431576 0.20884016 0.26278144 0.39064953 0.35764614 0.96747303 0.5979927
0 -0.15385257 0.8745216 0.48756635 -0.014861372 -0.00019932278 -0.024549419 0.69884396 -0.08504077 0.9106228 1.5402367 -0.066359214 -0.091076426 0.2533624 -0.12099179 -0.17388122 0.43892258 -0.16258614 -0.101191655 -0.15891564 -0.06362749 0.5818529 1.1016833 -0.039959382 0.53188926 0.44668514 0.36161312 -0.014397343 0.6059766 0.79460585 -0.0924963 -0.0710637 0.2629379 0.8992548 -0.098812364 -0.121409886 0.85981655 0.20567113 -0.12408729 -0.073131494 -0.022897666 -0.087412916 -0.05587356 -0.013319644 -0.10033166 0.036961384 0.10518178 -0.09310106 -0.107127726 0.52959186 -0.051875543 -0.05237282 0.2015828 -0.108608425 0.58892787 0.600104 -0.12962158 -0.02977108 0.5319382 -0.13832496 -0.0044808406 0.42454952 -0.0116287125 0.6393699 0.9808019
41 -0.11539221 0.26445246 0.02980169 0.20839533 -0.033172052 0.19888818 0.54515463 -0.02009498 1.1388242 1.2414553 -0.06686222 -0.02911807 -0.052807864 0.59921926 -0.061526477 0.51351607 -0.13484757 0.3588291 -0.03744846 -0.1381683 -0.05697859 1.2795336 0.10977073 0.03615728 -0.011045712 0.69654894 -0.042188503 -0.08796692 0.8868639 -0.09224453 -0.07106564 -0.065453604 0.536741 -0.028198028 -0.17147678 -0.018408237 -0.042001065 0.2711801 -0.0663074 0.067917705 0.0036870395 -0.052843343 0.28031313 -0.047922723 -0.07218431 0.06328213 -0.009580455 -0.016536394 0.6462911 0.17237137 -0.16890214 0.8145126 -0.04342907 0.84732866 -0.03586259 0.031663246 0.31248128 -0.022499198 -0.05791063 0.30061567 0.03729236 0.06957511 1.0311457 0.38123965
17 -0.14331025 0.16189627 0.49015182 0.17449266 0.4265587 0.03643224 0.19587506 -0.013440052 0.726509 1.0783592 -0.07727303 -0.017129485 0.250138 -0.08276791 -0.08608357 0.09655069 -0.023156246 0.88242394 -0.16881645 0.31729168 -0.15770285 1.2322959 -0.03617151 -0.025866328 0.9034583 0.043241378 -0.15589426 -0.12516926 0.53925925 -0.021084452 -0.02501556 0.27980143 0.32982957 -0.027504547 -0.08048745 -0.034692507 0.30706656 -0.1388834 -0.34465402 -0.030394664 -0.11878685 -0.035051875 0.540203 -0.0015409092 -0.16291563 -0.043326393 0.567189 -0.0003134148 1.2928916 -0.06593646 -0.0845109 0.29377595 -0.070710406 0.21272138 0.099266306 0.20519985 0.4299135 -0.07373835 -0.12512065 0.13033268 0.0018866281 0.33902973 1.308329 0.46377814
15 -0.14791404 0.63397944 0.0799373 0.39044812 0.47659042 -0.02825673 0.58444935 -0.0020996626 1.1247065 1.6174924 -0.08177977 -0.09527438 -0.05245338 0.12720406 -0.08697502 0.7014568 -0.06417989 0.6401926 -0.17627108 -0.098604314 -0.088344604 1.3061668 -0.08598459 0.20525376 0.88347334 0.682866 -0.12588868 -0.051370393 1.2963914 -0.06708636 -0.08582043 -0.0522438 0.5515741 -0.030991966 -0.16663055 0.1987209 -0.036118705 -0.046112835 -0.2578781 -0.06062851 -0.08638274 -0.063279636 0.46170154 -0.07683387 -0.16625553 -0.03376877 0.09511797 -0.044474274 0.9536011 0.21311086 -0.12698095 0.5842109 -0.10923928 0.6051179 0.6227208 -0.05222633 0.09325661 -0.045647614 -0.030999823 0.21448435 0.15163028 0.884678 1.24656 1.0469288
11 -0.14931244 -0.012154928 0.69165725 0.2044831 0.27728614 0.18250655 0.2981387 -0.045170706 0.52458483 1.2539973 -0.10135205 -0.03803013 0.6044816 0.035516705 -0.12078559 0.21242736 -0.0010572582 0.5250269 -0.103025 0.3655042 -0.08145512 1.1272687 0.2863034 0.30595717 0.38851133 0.016999561 -0.06082756 -0.10538806 0.8207052 -0.087784104 0.2325006 0.1786193 0.6641056 -0.0169707 -0.1169013 -0.05014358 -0.014137461 -0.074970126 -0.20714854 0.31473833 -0.11092657 0.15060149 0.48559925 -0.0521226 -0.045246236 0.04213446 0.4664773 0.083030514 0.98228765 -0.0145794125 -0.15289272 0.27624828 -0.10225747 0.42392904 0.24093677 0.025154762 0.18700975 -0.043322008 -0.17261533 0.67648524 0.010574002 -0.004284401 1.3798244 0.6162393
42 -0.05450365 0.595057 -0.006461881 0.23122934 -0.004464999 -0.010963551 0.75469404 -0.112082854 1.0198462 1.0704437 0.04652619 -0.03321258 -0.12253626 0.19414625 -0.039562106 0.40015522 -0.15071759 0.14504088 -0.07779188 -0.13872413 0.04098651 1.1346552 -0.040500928 -0.016165722 0.20911379 0.8841307 -0.078559004 -0.05177014 0.8190365 -0.065017045 -0.037885513 -0.11127684 0.351268 -0.03656236 -0.13009575 0.2735887 0.20131247 0.1435345 -0.021784108 0.37311518 -0.07962945 -0.030078111 0.6759365 -0.07889136 -0.06589889 -0.043988828 -0.002761929 -0.0483416 0.558718 0.40191758 -0.09106743 0.69936794 -0.044775896 0.6275655 -0.0026649765 0.024658058 0.35877794 -0.015168659 0.051510897 0.06761209 -0.007982989 0.3174916 0.95428324 0.5033438
45 -0.11317905 0.460433 0.35825315 0.29615548 0.26860046 0.18015707 0.31108955 -0.054619938 0.9405387 1.4662061 -0.0737442 -0.03554549 -0.025593683 -0.013729899 -0.08493889 0.40001088 -0.051323354 0.1600218 -0.08018833 -0.09759056 -0.018601343 0.82928354 0.15343139 0.18408036 0.1927926 0.231469 0.057535708 -0.08070665 0.59600645 -0.08694156 0.31951785 -0.030954128 0.2797476 -0.017249344 -0.12364681 -0.0182422 0.16752252 -0.06505552 -0.029420873 0.85521865 -0.0160097 -0.012019698 0.22696865 -0.094625995 -0.028455934 0.19071926 0.36228162 -0.03895771 0.48321196 0.06551153 -0.18104467 0.6482464 -0.106016055 0.67222905 0.0062479004 0.020420533 0.55087864 -0.028551295 -0.1710601 0.73491573 0.27135852 0.067454934 0.9692299 0.56517065
22 -0.08103613 0.16924873 0.13216093 0.23992677 0.7657892 -0.050604284 0.27709442 -0.08115491 0.33629242 1.3362949 0.23483634 -0.00619474 0.22225533 -0.14493494 -0.14173727 0.0008235553 -0.02236855 0.46108046 -0.25586706 0.25427738 -0.20019613 0.83867794 -0.12528053 -0.1002349 0.9137931 0.30356178 -0.17959134 -0.10513108 0.609703 0.12790042 0.102178745 0.13109633 0.59852237 -0.08487739 0.27168828 0.36273983 0.6121779 -0.032433745 -0.29213724 -0.12558196 -0.13139491 0.02762799 0.6699743 -0.006346383 -0.17428643 -0.023067405 0.01237054 -0.022173733 1.3123921 -0.14293787 -0.15700833 0.13295013 -0.12395888 0.32361463 0.5028919 -0.011699185 0.6362814 0.025665633 -0.12908594 -0.067722864 0.040547013 0.6135827 1.5291878 0.83814585
4 -0.20773628 0.28198564 0.61848 -0.0058277957 0.4047916 0.20538601 -0.00070867426 0.13815239 0.50761646 1.3355528 -0.16014448 -0.051626492 0.37380227 -0.086557694 -0.15701924 0.3651151 -0.06132857 0.17685986 -0.09525217 0.34546465 0.16324753 1.2208506 0.4409045 0.544105 0.11251924 -0.024028936 0.053333655 -0.026348546 0.99603266 -0.13139467 0.025135886 0.88210493 0.9803368 -0.033353854 -0.12124906 -0.033968724 -0.053132977 -0.10846066 -0.19233415 -0.032260977 -0.096068196 -0.04361914 -0.045328714 -0.09187064 -0.012686583 -0.006882515 0.37595734 -0.0494634 0.7961197 -0.06228667 -0.11219217 0.15096952 -0.06614577 0.62598497 0.6390317 -0.11648177 0.13932793 0.09965346 -0.20549722 0.5752937 0.4527735 -0.028656662 0.9803803 0.63394713
12 -0.10673465 0.32963014 0.41399837 0.017109934 0.37973735 -0.012288868 0.15213013 -0.076147035 0.6425321 0.86408025 -0.07950653 -0.07884011 -0.016790366 -0.043387916 -0.10550224 0.16416863 0.048352025 0.47445086 -0.09638514 0.19590871 -0.024558293 1.0018547 0.029872743 0.43052143 0.6004372 0.39796397 -0.08893984 0.12986383 0.9191215 -0.047887295 -0.007819385 0.12243697 0.35966966 0.019653637 -0.08361184 -0.0060992003 -0.028353736 -0.05773579 -0.11236717 -0.006835153 -0.12664162 0.44944248 0.4320608 -0.0535251 -0.05970663 0.017787982 0.1725358 -0.0100469105 0.9981157 0.15810251 -0.14063483 0.23580049 -0.071874976 0.0032651452 0.6090785 0.091950856 -0.037884418 -0.072377555 -0.011390423 0.11834569 0.07088758 0.3335246 0.9908655 0.49733642
50 -0.31537256 0.52584344 -0.005057137 0.20482579 0.10667364 0.02404766 -0.027017672 -0.14402226 1.2211866 3.1478393 -0.19722287 -0.007792666 0.8928292 -0.098429866 -0.15399449 1.0424186 -0.14107503 -0.05873095 -0.35912755 -0.112908736 -0.21658456 1.6274849 -0.21267092 -0.05156646 1.272535 -0.008029363 -0.24327703 -0.11066838 1.6771029 -0.11572329 -0.10031252 -0.04789413 1.0176362 -0.03533503 -0.261084 0.41877276 0.49799484 -0.05484317 -0.44102392 -0.1034176 -0.10295009 -0.06268843 0.5983785 -0.08868938 -0.22431031 -0.0008304412 -0.015899716 -0.07909737 1.2540251 -0.15371925 -0.17191653 -0.014198092 -0.2566079 0.83910036 0.613455 -0.1815921 1.032512 0.50109684 -0.26890156 -0.11766483 0.40120453 0.057346486 1.8031365 0.9176634
8 -0.19464053 0.39292872 0.42083198 -0.01782422 0.04390826 0.0746469 0.11151815 0.01270512 0.77844554 1.25435 -0.11635047 -0.1150105 0.13673827 -0.03173134 -0.093101144 0.6162101 -0.098188624 0.07432507 -0.10325288 -0.022648362 0.26045525 1.205846 0.15748295 0.64622253 0.4273597 0.61633664 -0.051198598 0.40646583 1.3392581 -0.082369655 -0.043610036 0.5000064 0.8824009 -0.040075123 -0.1793212 0.23250201 -0.06493659 -0.03412878 -0.11257436 -0.099729516 -0.12351978 -0.044503998 -0.058900893 -0.090950444 -0.009862818 -0.027956057 -0.021307236 -0.0724347 0.9282407 0.042178508 -0.14485115 0.29796684 -0.10134884 0.5557182 0.81093603 -0.10871209 -0.035348486 -0.007290055 -0.027855307 0.28698787 0.275616 0.21634762 0.9233911 0.78457606
33 -0.061055023 0.70406157 0.031776525 0.666274 0.2667071 0.26440188 0.41372114 -0.06661891 1.3060379 1.8526478 -0.0802881 -0.044843715 -0.047586326 0.69670784 0.12666376 0.81976986 -0.075353734 0.23276214 -0.08124435 -0.031877786 -0.129457 1.4595429 -0.026268406 0.01737426 0.059111826 0.5066171 -0.1229123 -0.0756498 1.3854307 -0.11419 0.21549004 -0.05577345 0.8020233 0.059535615 -0.18665932 -0.011482765 -0.030111343 -0.018706348 -0.20345595 0.2605703 -0.028266875 -0.016630182 1.1227841 -0.09373965 -0.1080513 0.012946646 -0.06479673 -0.03200989 0.85430235 0.1961136 -0.16929497 0.8590059 -0.111843824 0.71114624 0.1398553 -0.042809363 0.17097633 -0.012240255 -0.11078574 0.50168747 0.18513113 0.41626778 1.442748 1.0219762
2 -0.1448157 0.25382382 0.5481078 -0.005890835 0.2951061 0.38635996 0.22464237 0.1412186 0.59886956 1.1351336 -0.09474613 -0.05867985 0.16473022 -0.10681652 -0.11572804 0.3853677 -0.07604118 0.23564838 -0.10162379 0.093785055 0.07575282 0.9138295 0.32210186 0.38906437 0.012147179 -0.0069382037 0.025079735 -0.021385778 0.817276 -0.075747944 -0.04233561 0.72640055 0.79585505 -0.056117892 -0.066155694 -0.01885957 0.055920962 -0.08161837 -0.12910831 -0.027647352 -0.059925266 -0.068714164 -0.018417772 -0.1016837 -0.035286833 -0.004944267 0.4314228 -0.037532307 0.5992214 -0.09401762 -0.10794055 0.32395762 -0.07677352 0.7455695 0.2706075 -0.0912324 0.3962295 0.003421201 -0.17018889 0.48406136 0.32525572 0.15262996 0.9811409 0.6174567
