51 64
50 0.12521064 -0.016062887 0.11418319 0.12341753 0.028607585 -0.10107445 -0.12727822 0.065615155 -0.21037908 -0.2263571 0.13862465 0.080084994 -0.010619002 -0.2995883 0.01282984 -0.12826832 -0.112926126 -0.20008928 0.17876145 0.27380267 0.13644002 -0.020856045 0.092868194 -0.06409878 0.08129791 0.035392005 -0.063498296 0.10178125 0.08907391 -0.26014516 0.23961782 0.22452335 0.0734302 -0.12968785 -0.12616149 -0.005316418 -0.04821002 0.17908725 0.07631386 -0.005705709 -0.013483764 0.041334886 -0.20014903 -0.13610943 0.15312609 0.03458455 -0.008781334 0.2761528 0.008627246 -0.021011664 -0.082110785 0.06947818 0.07922304 0.10000746 -0.095926 -0.012835682 -0.17888643 -0.13014482 0.029870037 0.020595346 -0.037443608 -0.0597713 -0.22335993 0.06575304
3 0.08950853 -0.14354993 0.3009644 0.24042551 -0.029664513 -0.01999514 -0.004673123 0.13321145 -0.35251817 -0.2684975 0.12700243 0.07133735 -0.08445667 -0.2550252 0.036532182 -0.2081997 -0.17442295 -0.21622463 0.24413206 0.30367097 0.09560943 -0.092653535 -0.024956008 -0.115084454 -0.014067615 0.1469095 -0.032006346 0.1165753 0.0988241 -0.28584814 0.23707409 0.23098752 0.16297227 -0.13712727 -0.19397865 -0.16231598 -0.1279093 0.19935654 0.0860576 0.083817236 -0.15541267 0.19579068 -0.13296577 0.026273405 0.053880204 0.050411608 -0.14345996 0.22839999 -0.05119494 -0.14409584 -0.029246554 0.112515375 0.15729485 0.014558374 -0.04021856 -0.098666966 -0.17443131 0.055181395 -0.005982856 0.051719572 -0.17427023 -0.13107327 -0.2154871 0.006617991
15 0.15456909 0.017529564 0.15753421 0.21172868 0.058242653 -0.09697437 -0.10906589 0.08723976 -0.21601589 -0.20346421 0.17416683 0.06401442 -0.038410325 -0.29651374 0.043221418 -0.08258125 -0.068179995 -0.1794826 0.15280405 0.28920817 0.20463338 -0.039619774 0.10955058 -0.086592786 0.08108454 0.06780382 -0.025007756 0.103981815 0.05076937 -0.27335134 0.24001954 0.2649479 0.08159148 -0.14589167 -0.10069287 0.026996497 -0.08845402 0.17269921 0.052809652 -0.035630804 -0.015100107 0.0022545585 -0.196163 -0.119940646 0.21448392 0.0033493075 0.054058433 0.25691175 0.018033609 -0.0061862576 -0.054173604 0.039919455 0.025049161 0.11923529 -0.1477417 -0.08634475 -0.13534124 -0.18748192 0.016848307 -0.0026086648 -0.0046404623 -0.02133715 -0.20259927 0.0202918
33 0.026960848 0.14557512 -0.0020816603 0.108586945 0.12500298 -0.100049175 -0.19352284 -0.040352665 -0.25288135 -0.05855831 0.104030944 -0.09304889 0.06793525 -0.20978323 0.019570755 -0.11097532 -0.06296435 -0.24343154 0.052785177 0.27816665 0.197974 -0.17871834 0.18268876 -0.06689992 -0.07444083 0.010841145 -0.067465596 -0.027121708 0.2220865 -0.13656256 0.307725 0.12512922 -0.021374622 -0.16288975 -0.024320532 0.019780666 -0.1537328 0.1973339 -0.111632906 0.055904575 -0.038278043 0.050354037 -0.19064847 0.005213066 0.23508579 -0.0047112303 0.0634624 0.26113608 0.049689405 -0.08088005 -0.14484462 -0.049132634 -0.100819334 0.001508343 -0.03921956 0.077427395 -0.19238569 -0.11652529 0.21394782 0.038555227 0.048295867 0.052201994 -0.31341335 0.11666531
7 0.14482723 0.098631665 0.18327846 0.28905076 0.10281805 -0.022608493 -0.07944766 0.064640656 -0.28560218 -0.14266884 0.14136836 -0.01076102 -0.036248896 -0.18009235 0.023655819 -0.11143716 -0.043575764 -0.1813846 0.12317974 0.30599567 0.18796784 -0.11038829 0.108583696 -0.07760845 -0.011096811 0.05144033 0.019904776 0.017498879 0.1177385 -0.25818092 0.320247 0.25829074 0.030028673 -0.15994042 -0.05420601 -0.036126688 -0.21976377 0.15040706 -0.05611778 0.04321014 -0.13126965 0.039208107 -0.16352011 -0.023970336 0.19788395 0.01932596 0.05541952 0.23908864 0.023132177 -0.10821953 -0.032942574 0.0322058 -0.047337204 0.038325675 -0.06985572 -0.12899026 -0.12338809 -0.12166653 0.08008278 0.09663314 0.004842575 -0.009552612 -0.24073802 0.03569962
22 0.14104098 -0.023478456 -0.07013869 -0.0029191326 0.09164554 -0.13149138 -0.31026918 0.0120625505 0.012320027 -0.30466115 0.2833756 0.0005528743 0.010066074 -0.4104089 0.03220559 -0.038925875 -0.08539937 -0.26691672 0.16867517 0.19500464 0.07370805 0.06163692 0.19986077 0.16937909 0.20557569 0.028360913 -0.11146619 0.115910366 0.08698435 -0.24427366 0.26011002 0.14649172 0.039822638 -0.17279485 -0.09287587 0.060780495 0.15203941 0.13777554 0.16155323 -0.11137657 0.1452004 -0.084703125 -0.27435637 -0.2569677 0.26866105 0.062298182 0.11605923 0.3330295 0.113489576 0.0746827 -0.15819833 0.015488987 0.108347304 0.10530409 -0.13148387 0.16029856 -0.2595722 -0.22447434 -0.0068757 -0.10963544 0.028428923 -0.064970635 -0.200835 0.13692263
17 0.17918725 -0.06656071 0.10236482 0.11432643 0.05013428 -0.1493711 -0.16388999 0.0702078 -0.08337871 -0.31303394 0.22976524 0.12991934 -0.020331606 -0.39114463 0.039720636 -0.049719542 -0.08274157 -0.25747293 0.19431429 0.22153375 0.111063205 0.11038859 0.11596319 0.01199234 0.21098706 0.040653445 -0.06969657 0.18333285 -0.019785495 -0.31699643 0.2134866 0.25998116 0.09696793 -0.121952295 -0.19531561 0.026484724 0.13377336 0.13041002 0.22353713 -0.1124881 0.100635655 -0.025865922 -0.25707227 -0.2638134 0.20425352 -0.016394492 -0.0053470056 0.29204383 0.016640058 0.123028226 -0.07289229 0.109950975 0.13541946 0.14042147 -0.15149501 0.055193927 -0.18929702 -0.18770728 -0.085488066 -0.081407845 -0.038053233 -0.095320836 -0.20977741 0.03664944
8 0.18930346 0.06844364 0.21223319 0.32440165 0.095733784 -0.03640211 -0.031316116 0.10875491 -0.285607 -0.19310592 0.17096573 0.024327895 -0.060775664 -0.20241624 0.029016837 -0.11849693 -0.047959037 -0.19623356 0.17960344 0.2974465 0.18778996 -0.067761175 0.064295135 -0.10927163 0.04471261 0.085916996 0.053518433 0.06478148 0.04357153 -0.28355902 0.28942913 0.30140966 0.06651653 -0.14255986 -0.14816123 -0.030671583 -0.16175824 0.15534359 0.033409916 0.004379399 -0.12036365 0.044981413 -0.17519315 -0.072474964 0.19488421 -0.021423759 0.022218455 0.21359025 0.0082339775 -0.042862736 -0.001633227 0.095679864 -0.023789471 0.09644441 -0.094630785 -0.17582133 -0.095172524 -0.1494564 0.021156743 0.09436283 -0.009622556 -0.020557726 -0.24040444 0.013023113
29 -0.0957853 0.13238262 -0.18746923 -0.10531034 0.10020962 -0.11067426 -0.4080603 -0.1449772 -0.17208636 -0.09036531 0.16765718 -0.2229229 0.07770957 -0.3060045 0.092893355 -0.077407114 -0.13692582 -0.32169592 0.07141339 0.18926056 0.13642375 -0.21475466 0.29144505 0.077006616 -0.09892036 0.034870703 -0.1716779 -0.06974724 0.3346426 -0.036867704 0.35906547 -0.031110108 -0.0669395 -0.24357598 0.11987481 0.043204445 -0.10008812 0.18603292 -0.17646983 0.006491039 0.059104927 0.010639534 -0.11969245 0.06463721 0.326207 0.08694977 0.07359896 0.3223261 0.1710487 -0.10953807 -0.247116 -0.20164397 -0.07481782 -0.095016345 -0.051531587 0.29978153 -0.3110496 -0.112924896 0.26824737 -0.07505992 0.08250251 0.053013153 -0.25429136 0.18760149
5 0.11333296 -0.12357037 0.2605153 0.22802392 -0.0022843506 0.020221295 -0.14028822 0.13226569 -0.19334021 -0.32670543 0.2758161 0.04142505 -0.12230715 -0.30076587 0.068773255 -0.094781846 -0.09423171 -0.20536411 0.24157426 0.24451469 0.13099344 -0.05305313 0.05668512 0.051805913 0.12300473 0.15192738 -0.032959037 0.13113196 0.022202197 -0.34032577 0.29255933 0.2042328 0.13374715 -0.18059258 -0.1135712 -0.1028217 -0.033103578 0.1388141 0.08545817 0.00083022995 -0.071939856 0.049133584 -0.17578517 -0.0505374 0.19836839 0.10468525 0.05247061 0.24514146 0.047434613 -0.09742004 -0.021302074 0.05845465 0.14858958 0.05699894 -0.12868734 -0.08585523 -0.17040478 -0.06846506 -0.045889903 -0.055501077 -0.09716574 -0.12914298 -0.100705214 0.022021912
26 0.03492177 0.13655776 -0.12102848 -0.024903579 0.054627325 -0.14870521 -0.26920784 -0.107486844 -0.21575676 -0.10575182 0.133051 -0.097535215 0.053199295 -0.2907353 0.05297678 -0.07374234 -0.11722856 -0.2552856 0.1155339 0.20292835 0.18165252 -0.108490154 0.23792079 -0.05381529 0.0018207334 -0.019177964 -0.12819941 -0.031927362 0.23158371 -0.08647556 0.32030338 0.113085896 -0.05720939 -0.17740917 0.026857514 0.08502061 -0.09691237 0.21859038 -0.14328167 0.0050937072 0.031461906 0.009440529 -0.14421204 -0.054963145 0.26760456 0.04942552 0.014977361 0.3132274 0.13004819 -0.044587493 -0.18350857 -0.115514345 -0.08063694 0.030686991 -0.10099052 0.15490066 -0.24073297 -0.1793302 0.20526798 -0.0063058427 0.07019961 0.066500574 -0.25460145 0.11947159
4 0.11288893 -0.14857484 0.3075514 0.27216944 0.043397706 0.008493642 -0.038317397 0.16577993 -0.2593058 -0.318352 0.22797541 0.058721393 -0.108114794 -0.25411183 0.039979015 -0.18033086 -0.10555503 -0.25762686 0.24671066 0.2756247 0.078871354 -0.055016503 0.004600482 0.0059881015 0.05630318 0.1749593 0.0042112377 0.14764366 0.027708964 -0.34391555 0.26835623 0.2295849 0.17825112 -0.17053059 -0.22760817 -0.1734846 -0.032680564 0.154595 0.14903194 0.047432728 -0.09986174 0.12543052 -0.18860331 -0.00887146 0.11798363 0.064254366 -0.05932881 0.18356998 -0.040818993 -0.08061996 -0.02694299 0.16119532 0.16517565 0.025459772 -0.056513414 -0.0494015 -0.15513729 0.023730082 -0.06279428 -0.00848093 -0.16175774 -0.1468336 -0.20404844 -0.004811403
35 -0.015587764 0.20890337 -0.013580531 0.0552175 0.07652712 -0.15667315 -0.121836446 -0.09814778 -0.39460716 0.00851732 -0.009083928 -0.12561533 0.06863372 -0.21557344 0.032615773 -0.14957903 -0.13767812 -0.2576612 0.084296495 0.24042983 0.21830176 -0.15885769 0.1405444 -0.23787484 -0.17313883 -0.030325696 -0.04537442 -0.08241101 0.2692584 -0.034533367 0.30265233 0.14281252 -0.042325493 -0.1613789 -0.044141106 0.011947486 -0.21166715 0.25400993 -0.18854478 0.10895496 -0.083554335 0.1369406 -0.10624451 0.08218098 0.17382616 -0.045633428 -0.1090574 0.2317865 0.024476947 -0.061825704 -0.1399136 -0.04063563 -0.1608155 0.013559623 -0.073681615 0.09213723 -0.19181845 -0.09583192 0.2965566 0.10301281 0.041018534 0.12675656 -0.394646 0.07129997
0 0.09982967 -0.15694211 0.30557722 0.17651306 -0.06856817 -0.043988112 0.00012360455 0.13249375 -0.34023744 -0.31878656 0.117577516 0.13205437 -0.1288412 -0.31446874 0.050889786 -0.20742545 -0.19881633 -0.19016072 0.28366083 0.2585779 0.09484267 -0.03302229 -0.04883254 -0.15614015 0.029940829 0.124849536 -0.04626 0.12656856 0.06271689 -0.29871255 0.2164117 0.24462077 0.16007741 -0.1413629 -0.192923 -0.13390626 -0.099362515 0.21332696 0.08069315 0.072234206 -0.11112626 0.17472143 -0.11203315 -0.009460378 0.03583148 0.07875468 -0.1882052 0.24015006 -0.056088082 -0.109719895 -0.03330135 0.13297395 0.19690035 0.058281805 -0.09164318 -0.070588335 -0.17566742 0.025800727 -0.015582405 0.041846875 -0.18044269 -0.14001822 -0.16684046 -0.018185584
6 0.09245378 -0.14254771 0.2862569 0.19317783 -0.052443042 0.013870519 -0.08084843 0.13248518 -0.2802652 -0.32204533 0.18230139 0.07843835 -0.113708 -0.28573415 0.06579519 -0.15342817 -0.1729919 -0.20546184 0.2574722 0.26437506 0.0952069 -0.075097606 0.011245738 -0.034682143 0.02900053 0.1423401 -0.041568913 0.099284455 0.091140844 -0.32625964 0.27759042 0.19708423 0.12787583 -0.17262916 -0.12183755 -0.1687523 -0.104919575 0.1641827 0.06217885 0.062138323 -0.12437148 0.1408491 -0.12025824 0.003010869 0.0952412 0.10496532 -0.09611761 0.25685933 -0.016138284 -0.16200364 -0.034325413 0.08282438 0.19230044 -0.0070224707 -0.059900437 -0.0634202 -0.19420683 0.025378598 -0.02112476 0.018216081 -0.15624116 -0.15975083 -0.15146935 0.015949065
25 -0.030797562 0.01831184 -0.12585303 -0.12907411 0.010117547 -0.120461114 -0.35871547 -0.091013886 -0.10443514 -0.21497105 0.18810602 -0.07923143 0.017863892 -0.34694457 0.085147336 -0.078676276 -0.1713594 -0.27928594 0.15067008 0.16135195 0.093718186 -0.14092913 0.21657325 0.08172289 0.01869374 0.03349521 -0.20648411 0.0004592041 0.24010478 -0.11948593 0.3070065 -0.0153649375 -0.023136107 -0.2070632 0.055041414 0.038728103 -0.017633116 0.1903292 -0.088693 -0.0031373166 0.083260104 0.013015448 -0.14456187 -0.03391226 0.26982358 0.1574254 0.022319412 0.32417858 0.12825613 -0.10894018 -0.23359251 -0.13325621 0.06967187 -0.03359063 -0.08080424 0.28853545 -0.30303532 -0.11928286 0.17013049 -0.08031473 -0.010382853 -0.036658283 -0.1579284 0.17276661
47 0.031786732 -0.1153802 0.35027063 0.20709525 -0.06418922 -0.0077231578 0.011768517 0.096132234 -0.43957588 -0.2646488 0.10876432 0.04218723 -0.14000118 -0.24043748 0.08256968 -0.18871552 -0.21515025 -0.22037435 0.30306056 0.24754332 0.14348127 -0.068155184 -0.05329653 -0.21520431 -0.052464288 0.11337973 0.008571752 0.070048325 0.07796924 -0.28083012 0.2853884 0.23764859 0.123615466 -0.16478388 -0.17225915 -0.2084256 -0.15295526 0.21726474 -0.0011784792 0.13074484 -0.2092439 0.24941735 -0.08012686 0.084328614 0.047319237 0.057170864 -0.20611574 0.17993642 -0.053512476 -0.15721542 0.0075717755 0.13085 0.10543339 0.023367684 -0.107315734 -0.0757772 -0.16279739 0.07861007 0.048014373 0.07105188 -0.1598853 -0.10553859 -0.19278863 -0.03722612
40 -0.0007227047 0.23384467 -0.053167485 0.024305405 0.083919734 -0.19411282 -0.1419758 -0.13631445 -0.35267016 0.0014987618 -0.009669522 -0.10790083 0.08252375 -0.23400241 0.04000587 -0.118382744 -0.14074741 -0.27220193 0.10317262 0.22055511 0.21179806 -0.1351971 0.1613172 -0.22281146 -0.14879628 -0.068776496 -0.062066074 -0.086938456 0.236476 -0.032554016 0.30330476 0.13092788 -0.08830424 -0.15202612 -0.057494387 0.04267231 -0.17023228 0.27066797 -0.16528063 0.10468955 -0.05631001 0.11107761 -0.118045576 0.0041661425 0.20256834 -0.056204032 -0.11499521 0.25740153 0.018522805 -0.017040726 -0.15292412 -0.02557558 -0.16637172 0.035952207 -0.076508135 0.14065826 -0.20180285 -0.13328883 0.30834597 0.11996865 0.055633955 0.12509531 -0.39153418 0.08597894
30 -0.015074072 0.12745011 -0.06387706 0.018528959 0.09241242 -0.13361393 -0.25171053 -0.076310635 -0.25310695 -0.08554064 0.10647984 -0.12710546 0.058154065 -0.27003303 0.06945442 -0.07906287 -0.10592599 -0.2685098 0.09492933 0.22640271 0.18759 -0.14072365 0.22113524 -0.069301076 -0.06963328 0.016006762 -0.09368255 -0.0276917 0.22629312 -0.08725062 0.31363624 0.10883082 -0.04546743 -0.18234262 0.008095748 0.040168714 -0.11148777 0.21128137 -0.121801995 0.0036584332 0.00983266 0.040740646 -0.14046068 -0.0009204026 0.25648865 0.0039870786 0.019957157 0.28323543 0.09434984 -0.04732177 -0.16751899 -0.0832549 -0.10657625 0.0019527033 -0.08379803 0.14745057 -0.22210431 -0.13003628 0.21666548 -0.026128389 0.055036966 0.0595599 -0.27086517 0.09719089
37 0.035462003 0.24998213 -0.09017061 -0.016026236 0.07882229 -0.23643124 -0.15093324 -0.16028647 -0.34020177 -0.030127462 -0.024739122 -0.05663479 0.089002244 -0.26956734 0.024570744 -0.08333694 -0.17206812 -0.24109416 0.1286734 0.20993643 0.21243615 -0.018174281 0.16748375 -0.2486034 -0.10071751 -0.15197349 -0.07617715 -0.06667224 0.197558 -0.044050828 0.28991643 0.19707274 -0.108112775 -0.12542784 -0.078383215 0.08414574 -0.137773 0.26722533 -0.13628626 0.07488843 -0.044427857 0.111716375 -0.119567424 -0.09133474 0.16872236 -0.08516805 -0.1269738 0.2967048 0.027461264 0.054558836 -0.15330435 -0.00858721 -0.17064272 0.093951724 -0.10665788 0.14735685 -0.22975679 -0.19202968 0.29898942 0.15025057 0.09184061 0.12647566 -0.37281635 0.095053405
44 0.036180053 0.10770833 0.14484671 0.12989523 0.026408 -0.14723818 0.0050739017 -0.04249991 -0.4519061 -0.04768743 -0.021154612 -0.034075025 0.057364035 -0.23095551 0.041006826 -0.18649237 -0.14333077 -0.29294404 0.13454567 0.24590985 0.18888742 -0.07693779 0.048991766 -0.28498638 -0.14238156 -0.03987465 -0.027593926 -0.019104818 0.16697139 -0.11474501 0.24671184 0.20402436 0.040071286 -0.10742007 -0.17348526 -0.093952976 -0.16650085 0.261655 -0.07626242 0.14567247 -0.11844749 0.2110722 -0.12907748 0.055306822 0.07805078 -0.078186564 -0.26194367 0.196556 -0.060896132 -0.00846035 -0.07332318 0.102188006 -0.064068675 0.029415624 -0.06453834 0.05188321 -0.16318877 0.00096217496 0.20479494 0.13259345 -0.060733683 0.04868395 -0.41338736 -0.006204512
11 0.14119324 0.06420591 0.11417111 0.22979783 0.1344838 -0.064329945 -0.124005385 0.064409755 -0.19134077 -0.18612573 0.19808596 0.003136838 -0.011045431 -0.24330257 0.026212206 -0.08597485 -0.048209917 -0.2195817 0.13650212 0.2853813 0.16995361 -0.036885343 0.12703602 -0.0020950355 0.061378807 0.047760244 -0.007828308 0.057005253 0.059439205 -0.26697296 0.2815327 0.23712638 0.033469725 -0.1507575 -0.10583831 -0.0068935077 -0.07100731 0.15223628 0.075887024 -0.03312578 -0.04815735 0.0022603804 -0.20843445 -0.13160624 0.22717403 -0.015435263 0.07558307 0.24686134 0.027305065 -0.0060063093 -0.06678433 0.045572724 -0.014516271 0.08162914 -0.0770658 -0.04183714 -0.14690195 -0.15686955 0.045272335 0.03902965 0.033388596 -0.031361584 -0.2532233 0.088252395
31 -0.061645165 0.08750195 -0.13929746 -0.083252706 0.09179975 -0.1509343 -0.32621762 -0.085772954 -0.17532098 -0.11151835 0.14281708 -0.127581 0.07870135 -0.31037644 0.041623555 -0.1023889 -0.14053297 -0.29062915 0.074499875 0.21615337 0.1350942 -0.15020262 0.24830456 0.0120219 -0.04307307 0.032634392 -0.1742001 0.0056272936 0.2797049 -0.07755944 0.2939694 0.04469871 -0.01744829 -0.18037942 0.007929334 0.045176253 -0.03824742 0.21546136 -0.087230116 -0.00860542 0.073966995 0.04154191 -0.17872874 0.0043483768 0.24478066 0.05873901 0.032909047 0.3081282 0.11695454 -0.06829818 -0.23837984 -0.11716183 -0.04133628 -0.03299195 -0.056054167 0.2813913 -0.30080414 -0.087183505 0.22531155 -0.074175104 0.04072671 0.02110243 -0.27561036 0.164772
41 0.039510407 0.16147083 0.012984963 0.025049381 -0.015058078 -0.23131603 -0.06657842 -0.11595769 -0.4343091 -0.07647793 -0.037797682 -0.034315318 0.01653512 -0.27122635 0.066806234 -0.11877498 -0.19895554 -0.23697978 0.18904252 0.19600905 0.21182294 -0.05545089 0.079020336 -0.34323314 -0.10090308 -0.09046108 -0.061552793 -0.02473975 0.1613465 -0.06701327 0.26243955 0.2471503 -0.037444968 -0.12162367 -0.12470087 0.025075736 -0.16430794 0.2789261 -0.15309305 0.09900596 -0.08357717 0.18347825 -0.06370843 0.00651016 0.09956014 -0.05170722 -0.25149 0.23964798 0.008103822 0.0015720146 -0.082057916 0.035798345 -0.11480589 0.0914252 -0.14990857 0.07694449 -0.20105922 -0.112719156 0.2235662 0.12564722 -0.01272544 0.09257984 -0.31745663 -0.006114721
16 0.12484395 -0.030023063 0.013904921 0.048116345 0.025020516 -0.15656209 -0.2280301 0.043054916 -0.11381205 -0.28904626 0.22186515 0.050388724 -0.052152436 -0.37588134 0.075503685 -0.05267671 -0.1329952 -0.22351065 0.19650863 0.20957221 0.13905227 0.022911092 0.16366546 -0.0024185546 0.16065058 0.06564353 -0.11426454 0.14387234 0.06832525 -0.24529651 0.23530596 0.22144963 0.07064558 -0.15998407 -0.08570117 0.054765854 0.045590546 0.1649033 0.07462165 -0.10799157 0.09409162 -0.028949419 -0.19290707 -0.17513657 0.22849818 0.060601868 0.012693558 0.29773426 0.08001926 0.02320772 -0.116728276 0.0038367487 0.08814527 0.115549594 -0.1783602 0.080453366 -0.21935958 -0.19905747 -0.017000657 -0.09363654 -0.024253763 -0.059962403 -0.12961923 0.05099981
14 0.21129075 0.08749611 0.08645521 0.23368037 0.12477265 -0.0889715 -0.18362132 0.066088766 -0.09187203 -0.2339617 0.24969544 0.027589904 -0.048452817 -0.29251447 0.056213547 0.0038332378 -0.012323328 -0.16486496 0.1525668 0.27984616 0.1916899 -0.011965041 0.173544 0.03993002 0.16886751 0.050596602 -0.0077602416 0.092929944 0.027326792 -0.3012088 0.2817723 0.28408274 0.04237223 -0.17911908 -0.0709396 0.08532546 -0.03018444 0.13311037 0.073528446 -0.09540488 0.0019777892 -0.09043754 -0.2285957 -0.22602831 0.3094402 0.009119187 0.19373968 0.28710148 0.07821286 0.024191521 -0.0433753 0.03413462 -0.017428204 0.14938597 -0.17529653 -0.11306186 -0.13828921 -0.29270375 0.0052997824 0.0022479799 0.048819482 -0.006175472 -0.15283832 0.05296906
39 -0.026923168 0.1543366 0.026421284 0.059029832 0.031991467 -0.1137095 -0.1308155 -0.09698766 -0.40567702 -0.018270781 0.018500876 -0.14900531 0.05982721 -0.23013912 0.08782819 -0.14841425 -0.13249296 -0.28440484 0.13003619 0.21867274 0.19115056 -0.18958864 0.13078351 -0.2238152 -0.19148481 0.015159148 -0.039165694 -0.07119961 0.2636022 -0.043867648 0.32744208 0.12529482 -0.008456265 -0.18493557 -0.03580432 -0.034479257 -0.22074482 0.24953195 -0.19058658 0.1216958 -0.10643562 0.16499972 -0.06796074 0.12945873 0.18623899 -0.027946727 -0.13526632 0.2253358 0.030326402 -0.075409286 -0.09926034 -0.021613806 -0.11740083 -0.028122326 -0.0707816 0.07030437 -0.18685824 -0.053831086 0.26586306 0.0783562 0.0030491005 0.08960641 -0.36353043 0.032225676
19 0.07663006 -0.020076117 -0.116005205 -0.100931875 0.021189183 -0.1678705 -0.40732685 -0.042486377 0.027213521 -0.32789665 0.29443675 0.015829379 -0.03585448 -0.4442361 0.103188224 0.031305425 -0.13843791 -0.24258797 0.18544804 0.15876764 0.113010995 0.037743624 0.27308366 0.14990078 0.2137038 0.04355405 -0.18659662 0.10479093 0.10294849 -0.22822402 0.27772275 0.11967542 -0.005103865 -0.19861446 0.021938618 0.11895334 0.12543513 0.13487892 0.044179264 -0.16025364 0.18830034 -0.11377766 -0.18856883 -0.23425344 0.32600138 0.120801345 0.11735962 0.386458 0.16471675 0.028450087 -0.20521502 -0.09719258 0.08961543 0.077757426 -0.1954243 0.22024222 -0.29447585 -0.26114923 0.012260344 -0.17022525 0.036193956 -0.06081442 -0.06549138 0.12656914
38 -0.04814737 0.13855776 0.08020661 0.08211499 0.044653483 -0.110959075 -0.10258493 -0.08168766 -0.43082577 -0.019388111 -0.0036164715 -0.12122591 0.052433778 -0.2153137 0.05999112 -0.1541055 -0.14010723 -0.28098273 0.10556517 0.23397827 0.19405662 -0.16947682 0.11948583 -0.22703686 -0.21101277 -0.010986402 -0.05491643 -0.061320405 0.2554592 -0.07100013 0.3107593 0.14494595 -0.010711738 -0.15856105 -0.06138328 -0.09212377 -0.21414237 0.25407618 -0.18632203 0.15112995 -0.12759154 0.19262981 -0.092492834 0.14294545 0.13105091 -0.030148365 -0.16158783 0.22071938 -0.007992752 -0.08309871 -0.10399909 -0.00023218304 -0.106208146 -0.035167295 -0.054157536 0.098522484 -0.19562782 0.0047732964 0.26845038 0.07039632 -0.018207142 0.07029601 -0.3750039 0.031486202
13 0.20877798 0.06859933 0.17929268 0.31108144 0.11789577 -0.02947781 -0.119186506 0.1104645 -0.17691164 -0.23136339 0.24441251 0.05897896 -0.07697122 -0.23360878 0.03936846 -0.0276044 -0.012936314 -0.15146174 0.15928796 0.31315026 0.20847242 -0.021448994 0.14384858 0.0090314625 0.15020666 0.06807508 0.012884868 0.0944405 0.015794946 -0.3561688 0.3022685 0.31714764 0.0460038 -0.16286586 -0.08213158 0.027544746 -0.11125598 0.11610655 0.04823551 -0.06527039 -0.06746256 -0.06335205 -0.21561056 -0.17898507 0.2571646 0.018893642 0.1645839 0.27733204 0.048173852 -0.034665614 -0.014820758 0.04587392 -0.0063743964 0.12000228 -0.14328459 -0.1805604 -0.105113566 -0.23211658 -0.020672183 0.032459144 0.02276087 -0.0410492 -0.1488943 0.03846939
9 0.20922339 -0.0039131697 0.24234527 0.35105833 0.12051122 0.002398966 -0.07568464 0.16541754 -0.16875724 -0.26948312 0.2567823 0.073255934 -0.091399156 -0.24146652 0.025832465 -0.07794578 -0.010839152 -0.18124518 0.18728589 0.32876858 0.15594897 -0.047258828 0.09685973 0.05338878 0.13900332 0.13590766 0.035596374 0.12121799 0.009834192 -0.37849742 0.29308274 0.29194918 0.10317331 -0.17424104 -0.12993239 -0.02611175 -0.088264175 0.12632327 0.13467404 -0.042800367 -0.07400465 -0.03376615 -0.21887007 -0.15579042 0.24647813 0.022959765 0.14322732 0.25393444 0.01278217 -0.043515593 -0.00985195 0.092642345 0.06682234 0.09463967 -0.087095104 -0.19016801 -0.10933424 -0.17692982 -0.059658382 0.023445057 -0.030440802 -0.084251255 -0.1682985 0.031970277
27 -0.06744571 0.08268321 -0.2257253 -0.1362516 0.09936386 -0.17298985 -0.3996033 -0.119086646 -0.12104941 -0.10921084 0.17014898 -0.1614392 0.0882275 -0.34503636 0.05588964 -0.05478873 -0.13279413 -0.30710223 0.06776515 0.20654649 0.15029919 -0.13539886 0.29776543 0.07225885 -0.007331652 0.008719306 -0.19834034 -0.0021205982 0.28075364 -0.057815958 0.31098998 0.013294747 -0.056581926 -0.18857038 0.05236348 0.08850839 0.0093415845 0.21098593 -0.09614327 -0.03195492 0.117543586 -0.010088918 -0.18577634 -0.044590246 0.3140043 0.0696218 0.09521279 0.3367447 0.16707529 -0.05160776 -0.26180798 -0.16312978 -0.05021609 0.0024311699 -0.08286199 0.31293643 -0.30919328 -0.14664784 0.22634965 -0.11622734 0.07656299 0.058173746 -0.25539458 0.20384803
24 -0.002041459 -0.035739347 -0.13673164 -0.08187391 0.03749175 -0.08982222 -0.39918613 -0.060744107 -0.05048587 -0.2263192 0.26698962 -0.12563404 0.018441673 -0.37031803 0.07677773 -0.05462997 -0.12624788 -0.27874115 0.13176546 0.20146683 0.088033214 -0.14500849 0.23916972 0.18968621 0.05608422 0.06773026 -0.19612436 0.04582917 0.23584099 -0.14431068 0.31226435 -0.010344766 0.003003134 -0.23147096 0.049671367 0.034732882 0.029851276 0.16356266 -0.02767749 -0.03316476 0.0998594 -0.025754793 -0.19317068 -0.05178192 0.2949887 0.14524196 0.1397267 0.3471674 0.16416925 -0.108787656 -0.22120403 -0.14716269 0.08152106 -0.03478703 -0.067650534 0.24862443 -0.30773985 -0.105209224 0.10841146 -0.13912213 0.0111181 -0.048876833 -0.13981315 0.17399424
32 -0.029611321 0.12931822 -0.1318789 -0.04555475 0.09721777 -0.16584364 -0.2929477 -0.09108523 -0.19145207 -0.08074957 0.1108458 -0.13122298 0.092791446 -0.31660783 0.049937118 -0.10486175 -0.11511209 -0.291321 0.04978 0.23067798 0.1516093 -0.16979045 0.23825939 -0.03270355 -0.07450207 0.019167764 -0.16373943 -0.021159314 0.2926409 -0.058180895 0.27828917 0.04563801 -0.021668538 -0.19274515 0.025657697 0.0638061 -0.07199463 0.20954156 -0.09879724 0.00029198074 0.065722704 0.031256717 -0.17871141 -0.0035315296 0.25722003 0.026222372 0.021480955 0.2962255 0.09484399 -0.04360628 -0.22568315 -0.13249965 -0.07114739 -0.027033098 -0.06334991 0.24599184 -0.27668256 -0.12054408 0.2450963 -0.060574558 0.051664732 0.045697425 -0.3172741 0.14226969
18 0.14755046 0.044945065 -0.053828776 0.03209309 0.08169111 -0.16776702 -0.28559938 -0.0044557094 -0.011586873 -0.28202003 0.2473792 0.0473743 -0.016229102 -0.38722974 0.048904654 0.012429223 -0.09457806 -0.18438606 0.16750069 0.21461925 0.13539372 0.043246172 0.21206482 0.08585036 0.1861738 0.009412032 -0.12781565 0.094461486 0.05817872 -0.23982017 0.24814254 0.19979557 -0.011613081 -0.16653068 -0.051693134 0.124814644 0.057938214 0.14399147 0.09250703 -0.12696308 0.10974514 -0.08865759 -0.22437944 -0.27036253 0.2826809 0.040583417 0.1458083 0.35663095 0.114840165 0.057775937 -0.15340053 -0.039342556 0.03445442 0.12768544 -0.16359025 0.09216333 -0.24932513 -0.28395084 0.027584074 -0.07414762 0.059194703 -0.034629323 -0.1410941 0.12895048
46 0.11891687 -0.08684894 0.26554218 0.16239527 -0.02033775 -0.095731206 0.0025278036 0.0783476 -0.2994425 -0.2778973 0.09589979 0.11294891 -0.07954365 -0.3206042 0.035394985 -0.15729956 -0.18361467 -0.19247288 0.2528303 0.25757605 0.10504211 0.024275005 -0.019960182 -0.16897845 0.0094450945 0.06116095 -0.010709096 0.11133637 0.03831826 -0.26880166 0.22364572 0.26186094 0.113583796 -0.12489873 -0.20500843 -0.10522556 -0.087272815 0.20626003 0.11224505 0.06809082 -0.09827933 0.15344875 -0.12536742 -0.05225356 0.06998506 0.021655167 -0.17401597 0.24647884 -0.07075287 -0.014724331 -0.0302525 0.13873555 0.14054815 0.07624576 -0.104319215 -0.03963606 -0.18427445 -0.037889406 0.012124175 0.055328842 -0.123351686 -0.08610638 -0.24428554 -0.016230501
49 0.081102334 -0.05229243 0.26895174 0.18254505 -0.017446587 -0.09987477 0.048361387 0.063964486 -0.41852945 -0.20795368 0.05259331 0.04848399 -0.05517923 -0.27858418 0.03501276 -0.21088594 -0.16418545 -0.25591886 0.254668 0.2401031 0.11691357 -0.03465073 -0.042630237 -0.25118107 -0.08097687 0.057777785 0.022805225 0.07938621 0.084543556 -0.2156075 0.23703572 0.24911495 0.11528159 -0.12598884 -0.24096824 -0.15180583 -0.10921052 0.24361074 0.05908538 0.13229741 -0.13309272 0.22994322 -0.113031976 0.030696515 0.04215738 -0.013236761 -0.24925764 0.17715316 -0.07890362 -0.016272416 -0.009354646 0.17128927 0.080010556 0.06772872 -0.09746795 -0.025741767 -0.15976731 0.015286286 0.06792665 0.07677501 -0.14225222 -0.05772903 -0.33163863 -0.0492928
20 0.05199634 -0.16522251 0.09022655 0.047236707 -0.016032647 -0.03677932 -0.24903998 0.0719074 -0.12192231 -0.34560448 0.2807715 0.03314504 -0.10798703 -0.35261753 0.09056901 -0.08600746 -0.15973707 -0.23897247 0.2235505 0.20835619 0.08810093 -0.056068104 0.13261668 0.11720693 0.1312129 0.14035548 -0.13371138 0.12787779 0.11081834 -0.29126388 0.27799606 0.119228505 0.110799626 -0.20466018 -0.060299218 -0.07052174 0.025580227 0.15501168 0.053644635 -0.036035094 0.031950038 0.026713215 -0.16363361 -0.06801086 0.21440203 0.1527139 0.020598598 0.28972697 0.07677775 -0.10851681 -0.1212128 -0.012550327 0.19258319 0.02120517 -0.116104595 0.09440953 -0.22257952 -0.060218982 -0.04134725 -0.12482722 -0.10184966 -0.1332772 -0.06002442 0.07727919
36 -0.006266413 0.16095106 -0.038970407 0.035770893 0.07454313 -0.18164894 -0.1600239 -0.079078645 -0.33136678 -0.038152825 0.03861192 -0.097813934 0.08030215 -0.26707196 0.053120848 -0.12142852 -0.12597272 -0.2673603 0.09104267 0.24693207 0.20798224 -0.13333465 0.18255562 -0.1907051 -0.10996104 -0.00794093 -0.0644426 -0.025551373 0.23842806 -0.05906799 0.27665442 0.15274124 -0.021987624 -0.15339482 -0.04053872 0.058710992 -0.15973891 0.2345791 -0.12956434 0.037611034 -0.01622304 0.083161674 -0.11878541 0.01276642 0.21722484 -0.05329187 -0.06779944 0.2620158 0.058144882 -0.0065345406 -0.13770026 -0.04904241 -0.12778541 0.040494908 -0.09614016 0.0936082 -0.19571573 -0.13488318 0.22750081 0.026278403 0.055659346 0.10244414 -0.34557655 0.06517199
28 -0.048205245 0.088204816 -0.09334869 -0.016736817 0.089941025 -0.09737652 -0.2898279 -0.07975711 -0.2196461 -0.09516598 0.14131472 -0.15383115 0.053152036 -0.24737677 0.06086931 -0.11127087 -0.12083791 -0.29536033 0.09062621 0.22357216 0.13609837 -0.19647937 0.22359858 0.017237093 -0.07441142 0.049269885 -0.13525867 -0.027636034 0.27468732 -0.08935524 0.33306497 0.0259111 -0.027782006 -0.19589417 0.038760815 0.022700863 -0.12196727 0.20039508 -0.14087257 0.030798037 0.006322624 0.033834755 -0.13637055 0.05216933 0.2696064 0.07468911 0.04264037 0.28742915 0.12350458 -0.11875209 -0.19886327 -0.12226743 -0.04754031 -0.05388422 -0.03542619 0.19334237 -0.24348402 -0.08412477 0.20878461 -0.031567387 0.026632182 0.029492324 -0.24353254 0.15268692
48 0.14114651 -0.18888834 0.43921944 0.29531392 -0.08369162 0.019129835 0.046185147 0.15367933 -0.39097756 -0.34727558 0.16776899 0.08576403 -0.1792592 -0.2892297 0.09698557 -0.17840376 -0.19524048 -0.20136994 0.3457536 0.26338294 0.09284158 -0.00821135 -0.093660094 -0.12858117 0.00813054 0.14577079 0.041459817 0.13877183 -0.0051822932 -0.35369825 0.2691985 0.29763287 0.19772808 -0.17217825 -0.21845101 -0.22684042 -0.1196429 0.17075661 0.121096574 0.091793455 -0.21091372 0.2043874 -0.09642195 0.036859814 0.024039077 0.06893525 -0.21087955 0.19083554 -0.07406276 -0.12990668 0.05501703 0.17918745 0.20796356 0.03474371 -0.10785237 -0.15955283 -0.14225529 0.0600915 -0.08233271 0.058515925 -0.20038387 -0.16545476 -0.17097558 -0.08127399
2 0.072826095 -0.14298686 0.308273 0.18400338 -0.05293779 -0.056664936 -0.005131068 0.100473784 -0.3683772 -0.2942055 0.1385633 0.04220455 -0.09683662 -0.31986582 0.074117824 -0.18931106 -0.20535247 -0.27638033 0.27990142 0.22172825 0.096937396 -0.017606378 -0.057845045 -0.13681458 -0.020230567 0.12380431 -0.025198853 0.12209982 0.04277953 -0.2508398 0.22637014 0.2288453 0.16785733 -0.14684625 -0.23962419 -0.19080403 -0.042335585 0.19668284 0.115111165 0.081052504 -0.119834 0.2167428 -0.113635525 0.045645665 0.03985999 0.035724137 -0.25866428 0.18902597 -0.06401274 -0.05687456 -0.018859604 0.1417368 0.16416351 0.014262373 -0.097491294 0.0015047201 -0.19596379 0.07432646 -0.027487315 0.013437884 -0.1860358 -0.11114697 -0.24601543 -0.0480109
1 0.10270964 -0.17260103 0.30625454 0.20928413 -0.013573143 -0.019572938 -0.024366606 0.12977532 -0.28397074 -0.32328913 0.17961046 0.06770428 -0.10958646 -0.29302886 0.044304132 -0.19487078 -0.17420669 -0.25267947 0.28471386 0.24781145 0.06518791 -0.020837072 -0.04462295 -0.05551799 0.0369774 0.1469493 -0.012438206 0.14397469 0.031643234 -0.3089209 0.24560055 0.2242038 0.18200268 -0.15756367 -0.24573673 -0.19218554 -0.009511788 0.17853059 0.16483657 0.06946195 -0.11268731 0.17099293 -0.16736017 -0.020788504 0.06852138 0.058334906 -0.13911872 0.18603075 -0.052390635 -0.067086555 -0.024086442 0.17331469 0.1944227 0.033713575 -0.07383431 -0.023179978 -0.17853189 0.04822763 -0.044176396 0.0065096365 -0.17543119 -0.1494808 -0.22011632 0.0012520575
21 0.13167654 -0.049482428 0.027928317 0.07989575 0.03689791 -0.10656534 -0.29106933 0.033159606 -0.018910924 -0.28526008 0.30237126 0.010509407 -0.013083351 -0.3884643 0.08635815 -0.025930246 -0.099740036 -0.27189296 0.16973756 0.22649792 0.114175744 -0.0023783387 0.17625478 0.14286672 0.1917776 0.08926784 -0.11225074 0.14178205 0.061143473 -0.2643102 0.264414 0.13031428 0.09894946 -0.18126681 -0.09243223 0.02522004 0.11600813 0.13605738 0.15782806 -0.1021874 0.10007737 -0.0661558 -0.25185063 -0.20804329 0.28529197 0.045049015 0.0978814 0.31921628 0.08399639 0.029882144 -0.11988718 -0.010762227 0.12938699 0.064122714 -0.115553394 0.09984549 -0.23723209 -0.18300198 -0.0273069 -0.11422471 -0.008495302 -0.08103473 -0.1638775 0.08628904
42 -0.006035542 0.14813453 0.084737234 0.10527778 0.05609414 -0.13051334 -0.029219376 -0.08815817 -0.49638948 -0.029135136 -0.033896808 -0.08975846 0.04170376 -0.22238491 0.019518334 -0.1573928 -0.17689715 -0.22348759 0.14885306 0.24225962 0.25140908 -0.07314929 0.07519066 -0.32469726 -0.17186595 -0.085315324 -0.009755462 -0.056677315 0.1720133 -0.084056236 0.3051717 0.21846734 -0.063266315 -0.12995385 -0.12652154 -0.04342692 -0.22346035 0.30138385 -0.15147132 0.1648657 -0.1652103 0.21568616 -0.09889249 0.065012574 0.09308433 -0.077423446 -0.16918203 0.24431361 -0.01892553 -0.03959604 -0.0937115 0.047170047 -0.14929177 0.07597349 -0.08589403 0.042499136 -0.18517692 -0.041866347 0.26924694 0.15153666 0.016104547 0.12332081 -0.37206373 0.032063156
23 0.008320085 0.04593488 -0.19414479 -0.10750597 0.08485701 -0.13904132 -0.42963758 -0.092256874 -0.013764164 -0.19007778 0.2537282 -0.12920955 0.070108235 -0.3945922 0.072765216 -0.018738147 -0.109259866 -0.29416737 0.097513616 0.18230416 0.10644242 -0.08373712 0.29039335 0.18084547 0.0652767 0.03173503 -0.19676003 0.0378213 0.22210388 -0.10210272 0.292761 0.020879008 -0.011885088 -0.21427241 0.045320053 0.09997066 0.066155806 0.16313748 -0.00033526937 -0.0821372 0.14807753 -0.067915864 -0.20735098 -0.11512934 0.32931837 0.08640496 0.15082015 0.35235843 0.17236644 0.0019137873 -0.24116366 -0.14267144 0.020172974 -0.0026796802 -0.103700265 0.28222728 -0.31809053 -0.1931191 0.1307969 -0.15196483 0.074753925 0.001650637 -0.20424433 0.18738423
43 -0.02583509 0.10269471 0.110712335 0.039760754 -0.0070089707 -0.14464255 -0.038093295 -0.09519641 -0.49123842 -0.05627794 -0.051838815 -0.08680952 0.009945814 -0.27537647 0.08902104 -0.18863212 -0.22647321 -0.26050553 0.19359738 0.18438646 0.20003547 -0.08111634 0.015443731 -0.34958658 -0.21871337 -0.04916427 -0.010887797 -0.062179476 0.17776069 -0.046360753 0.2900546 0.1723337 -0.025853733 -0.15708627 -0.11985741 -0.10296028 -0.18369341 0.2964191 -0.12349289 0.17146003 -0.14960301 0.25616896 -0.04587223 0.106082775 0.0707977 -0.040577114 -0.2876702 0.19727758 -0.050046876 -0.044481337 -0.071136914 0.059616815 -0.06329616 0.033750836 -0.10280797 0.10406186 -0.20186584 -0.006770726 0.25281763 0.12489387 -0.043247446 0.07589351 -0.37950033 -0.011295691
34 -0.005148754 0.13638122 -0.08971012 -0.0018857972 0.107298866 -0.17093481 -0.22702093 -0.086752586 -0.23524906 -0.0397485 0.08220141 -0.14847407 0.10805773 -0.2704595 0.04688824 -0.12824404 -0.111739606 -0.33522683 0.07273392 0.20918737 0.13613144 -0.13243002 0.19600174 -0.06267526 -0.106775105 0.00062173716 -0.09451007 -0.03102514 0.26269695 -0.040673714 0.2862518 0.08334185 -0.013636331 -0.14991389 -0.05068036 -0.00061404955 -0.0662908 0.21894507 -0.059732813 0.04159994 0.024422988 0.07253529 -0.17022663 0.002552629 0.22947356 -0.028963983 -0.07257148 0.25273722 0.058763143 -0.00521429 -0.17630419 -0.036822695 -0.08213792 -0.018263744 -0.028002435 0.19854134 -0.24333102 -0.08839152 0.23635009 -0.0020785315 0.030866483 0.048775136 -0.40810707 0.11318065
45 0.0924557 -0.002161801 0.23843595 0.16315122 -0.032826614 -0.12535265 0.009837218 0.007128189 -0.41921484 -0.17281817 0.023117514 0.06899545 -0.0132255275 -0.2899553 0.07001854 -0.16213354 -0.17944798 -0.21436048 0.23204602 0.25284642 0.16345982 0.0045934548 -0.0104110995 -0.28475642 -0.06268161 -0.019492105 -0.008598774 0.048839625 0.055426177 -0.20807745 0.24174939 0.28931743 0.056103695 -0.113362275 -0.19681579 -0.09546976 -0.14193262 0.22096528 0.03715241 0.09090832 -0.13966157 0.20038824 -0.10209009 -0.03785176 0.0414647 -0.05714141 -0.24236107 0.24751563 -0.08381113 0.0018331646 -0.005410245 0.1345896 0.04363915 0.06668679 -0.09183194 -0.04890844 -0.16738711 -0.020184664 0.07427134 0.10046509 -0.08847953 -0.037686042 -0.30293223 -0.0439672
10 0.16375427 -0.093193755 0.2977006 0.29318634 0.014695722 0.0024927931 -0.027636688 0.15899324 -0.2822134 -0.28127113 0.19691747 0.08096273 -0.11128108 -0.2702698 0.06750864 -0.13817939 -0.11880142 -0.20117906 0.25803763 0.27746823 0.13748066 -0.021424131 -0.0065287533 -0.07877708 0.0865181 0.12648025 0.03189041 0.1283637 0.015020393 -0.34053642 0.26025698 0.28664324 0.12997384 -0.1571212 -0.18123968 -0.11988539 -0.0683273 0.15220037 0.13844101 0.007940254 -0.13093184 0.10834564 -0.17021506 -0.07408953 0.1257441 0.020458203 -0.05849392 0.21633565 -0.039717723 -0.06968548 0.024500156 0.14341329 0.1287181 0.07609328 -0.09691715 -0.15096079 -0.13468641 -0.048020046 -0.06793213 0.030614989 -0.1106147 -0.114870146 -0.17451641 -0.023761539
12 0.29269233 0.04667351 0.18016891 0.34656936 0.14546826 -0.06875404 -0.10712824 0.16011554 -0.08526381 -0.2704484 0.27917907 0.114304304 -0.056745753 -0.3027264 0.0007773162 -0.030345416 0.015838362 -0.15174101 0.16565096 0.31523556 0.19348428 0.045362078 0.11747876 0.043143712 0.24086814 0.076639876 0.019721469 0.16212805 -0.053556733 -0.38469717 0.25875998 0.36189917 0.08027282 -0.13973711 -0.16037157 0.06988853 0.0008769664 0.12499771 0.2021461 -0.11498125 0.0045924033 -0.10561672 -0.27690196 -0.29826665 0.28099936 -0.03699308 0.21136935 0.2836796 0.040954202 0.07056386 -0.009804313 0.10521133 0.034363806 0.19874237 -0.15148476 -0.20937774 -0.1169773 -0.29647285 -0.08616536 0.01630074 0.03703866 -0.052043322 -0.19759358 0.041528374
